{"learner":{"attributes":{"scikit_learn":"{\"_estimator_type\": \"regressor\"}"},"feature_names":["PREMIUM_AMOUNT","AGE","TENURE","NO_OF_FAMILY_MEMBERS","ANY_INJURY","POLICE_REPORT_AVAILABLE","INCIDENT_HOUR_OF_THE_DAY","REPORT_DELAY_DAYS","loss_ratio","INSURANCE_TYPE_Life","INSURANCE_TYPE_Mobile","INSURANCE_TYPE_Motor","INSURANCE_TYPE_Property","INSURANCE_TYPE_Travel","MARITAL_STATUS_Y","EMPLOYMENT_STATUS_Y","RISK_SEGMENTATION_L","RISK_SEGMENTATION_M","HOUSE_TYPE_Own","HOUSE_TYPE_Rent","SOCIAL_CLASS_LI","SOCIAL_CLASS_MI","CUSTOMER_EDUCATION_LEVEL_College","CUSTOMER_EDUCATION_LEVEL_High School","CUSTOMER_EDUCATION_LEVEL_MD","CUSTOMER_EDUCATION_LEVEL_Masters","CUSTOMER_EDUCATION_LEVEL_PhD","CLAIM_STATUS_Open","INCIDENT_SEVERITY_Minor Loss","INCIDENT_SEVERITY_Total Loss","AUTHORITY_CONTACTED_NEW_Other","AUTHORITY_CONTACTED_NEW_Police","AUTHORITY_CONTACTED_NEW_Unknown","severity_claim_mismatch_1","severity_injury_mismatch_1","missing_police_high_sev_1","injury_no_authority_1","high_claim_outlier_1"],"feature_types":["float","int","int","int","int","int","int","int","float","i","i","i","i","i","i","i","i","i","i","i","i","i","i","i","i","i","i","i","i","i","i","i","i","i","i","i","i","i"],"gradient_booster":{"model":{"cats":{"enc":[],"feature_segments":[],"sorted_idx":[]},"gbtree_model_param":{"num_parallel_tree":"1","num_trees":"200"},"iteration_indptr":[0,1,2,3,4,5,6,7,8,9,10,11,12,13,14,15,16,17,18,19,20,21,22,23,24,25,26,27,28,29,30,31,32,33,34,35,36,37,38,39,40,41,42,43,44,45,46,47,48,49,50,51,52,53,54,55,56,57,58,59,60,61,62,63,64,65,66,67,68,69,70,71,72,73,74,75,76,77,78,79,80,81,82,83,84,85,86,87,88,89,90,91,92,93,94,95,96,97,98,99,100,101,102,103,104,105,106,107,108,109,110,111,112,113,114,115,116,117,118,119,120,121,122,123,124,125,126,127,128,129,130,131,132,133,134,135,136,137,138,139,140,141,142,143,144,145,146,147,148,149,150,151,152,153,154,155,156,157,158,159,160,161,162,163,164,165,166,167,168,169,170,171,172,173,174,175,176,177,178,179,180,181,182,183,184,185,186,187,188,189,190,191,192,193,194,195,196,197,198,199,200],"tree_info":[0,0,0,0,0,0,0,0,0,0,0,0,0,0,0,0,0,0,0,0,0,0,0,0,0,0,0,0,0,0,0,0,0,0,0,0,0,0,0,0,0,0,0,0,0,0,0,0,0,0,0,0,0,0,0,0,0,0,0,0,0,0,0,0,0,0,0,0,0,0,0,0,0,0,0,0,0,0,0,0,0,0,0,0,0,0,0,0,0,0,0,0,0,0,0,0,0,0,0,0,0,0,0,0,0,0,0,0,0,0,0,0,0,0,0,0,0,0,0,0,0,0,0,0,0,0,0,0,0,0,0,0,0,0,0,0,0,0,0,0,0,0,0,0,0,0,0,0,0,0,0,0,0,0,0,0,0,0,0,0,0,0,0,0,0,0,0,0,0,0,0,0,0,0,0,0,0,0,0,0,0,0,0,0,0,0,0,0,0,0,0,0,0,0,0,0,0,0,0,0],"trees":[{"base_weights":[-2.0944647E-4,-6.2061816E3,5.5485574E4,-1.1462349E4,1.084903E4,4.424889E4,6.6256914E4,-1.3320855E4,-5.359096E3,3.860087E3,1.5938975E4,3.7249523E4,4.9066332E4,6.141163E4,3.6223943E3,-1.4694979E4,-1.0702283E4,-1.1084689E4,-2.2214712E3,1.2358176E3,8.68717E3,1.4002797E4,2.1226502E4,1.644768E3,3.9110637E4,4.066559E4,2.9250117E3,2.4379695E3,3.4105422E3,-1.3517359E4,-8.087738E2,-1.3471565E4,-8.052293E3,-7.903105E2,-8.592551E3,-4.5874487E3,-7.238975E1,-2.5819333E3,2.512153E3,4.943511E3,1.2107317E4,8.8627705E3,1.713368E4,1.5812273E4,2.20782E4,1.7556855E3,2.2307378E3,1.7479104E3,2.22303E3,-7.357597E2,-6.105671E2,-7.4332697E2,-6.151002E2,-4.5608786E2,-3.066542E2,-4.970481E2,-3.4239728E2,-3.0528287E2,-1.3076672E2,-1.10678246E2,5.6209145E1,-1.8076105E2,-7.8306613E0,4.550835E1,2.6700952E2,1.9058043E2,3.543372E2,4.5166782E2,6.7282263E2,1.8008722E2,5.3208246E2,7.551801E2,9.526007E2,4.0631418E2,9.0911993E2,9.7814325E2,1.1442036E3],"categories":[],"categories_nodes":[],"categories_segments":[],"categories_sizes":[],"default_left":[0,0,0,0,0,0,0,0,0,0,0,0,0,0,0,0,0,0,0,0,0,0,0,0,0,0,0,0,0,0,0,0,0,0,0,0,0,0,0,0,0,0,0,0,0,0,0,0,0,0,0,0,0,0,0,0,0,0,0,0,0,0,0,0,0,0,0,0,0,0,0,0,0,0,0,0,0],"id":0,"left_children":[1,3,5,7,9,11,13,15,17,19,21,23,25,27,-1,29,31,33,35,37,39,41,43,-1,45,47,-1,-1,-1,49,-1,51,53,-1,55,57,59,61,63,65,67,69,71,73,75,-1,-1,-1,-1,-1,-1,-1,-1,-1,-1,-1,-1,-1,-1,-1,-1,-1,-1,-1,-1,-1,-1,-1,-1,-1,-1,-1,-1,-1,-1,-1,-1],"loss_changes":[2.755517E12,6.452998E11,9.450055E10,6.2337384E10,6.0270838E10,1.1558846E10,7.8197555E9,1.5016526E10,2.3078068E10,9.059241E9,9.745842E9,5.8638336E7,1.600743E10,1.6976118E10,0E0,4.59853E9,1.0569138E10,5.2180255E9,4.2301202E9,2.272306E9,3.16672E9,1.1451073E10,8.54442E8,0E0,8.7536435E8,1.1748475E9,0E0,0E0,0E0,2.2373007E9,0E0,9.754952E8,1.47524E9,0E0,6.3765914E8,1.169687E9,1.1221138E9,2.926421E8,1.576276E9,2.689518E8,4.2172416E8,2.5353216E9,1.4530314E9,5.6269824E8,4.358144E6,0E0,0E0,0E0,0E0,0E0,0E0,0E0,0E0,0E0,0E0,0E0,0E0,0E0,0E0,0E0,0E0,0E0,0E0,0E0,0E0,0E0,0E0,0E0,0E0,0E0,0E0,0E0,0E0,0E0,0E0,0E0,0E0],"parents":[2147483647,0,0,1,1,2,2,3,3,4,4,5,5,6,6,7,7,8,8,9,9,10,10,11,11,12,12,13,13,15,15,16,16,17,17,18,18,19,19,20,20,21,21,22,22,24,24,25,25,29,29,31,31,32,32,34,34,35,35,36,36,37,37,38,38,39,39,40,40,41,41,42,42,43,43,44,44],"right_children":[2,4,6,8,10,12,14,16,18,20,22,24,26,28,-1,30,32,34,36,38,40,42,44,-1,46,48,-1,-1,-1,50,-1,52,54,-1,56,58,60,62,64,66,68,70,72,74,76,-1,-1,-1,-1,-1,-1,-1,-1,-1,-1,-1,-1,-1,-1,-1,-1,-1,-1,-1,-1,-1,-1,-1,-1,-1,-1,-1,-1,-1,-1,-1,-1],"split_conditions":[1E0,1.3551102E2,9.571327E2,7.987221E1,2.2980959E2,7.2092053E2,6.967E1,9.944E1,9.53E1,1.2704E2,4.210141E2,8.392E1,8.048E1,1.1956522E3,3.6223943E3,1E0,4.121445E1,8.85E0,1.3376E2,8.933E1,1.7285435E2,9.224E1,5.465E1,1.644768E3,6.189651E2,6.715E1,2.9250117E3,2.4379695E3,3.4105422E3,4.060914E1,-8.087738E2,2.008032E1,1.4412E2,-7.903105E2,1.01146324E2,1.0385757E2,9.594883E1,2.0391518E2,1.8609207E2,1.5687505E2,1.9070164E2,6.921E1,2.8006723E2,5.510132E2,4.584766E2,1.7556855E3,2.2307378E3,1.7479104E3,2.22303E3,-7.357597E2,-6.105671E2,-7.4332697E2,-6.151002E2,-4.5608786E2,-3.066542E2,-4.970481E2,-3.4239728E2,-3.0528287E2,-1.3076672E2,-1.10678246E2,5.6209145E1,-1.8076105E2,-7.8306613E0,4.550835E1,2.6700952E2,1.9058043E2,3.543372E2,4.5166782E2,6.7282263E2,1.8008722E2,5.3208246E2,7.551801E2,9.526007E2,4.0631418E2,9.0911993E2,9.7814325E2,1.1442036E3],"split_indices":[37,8,8,8,8,8,0,0,0,0,8,0,0,8,0,10,8,0,0,0,8,0,0,0,8,0,0,0,0,8,0,8,0,0,8,8,8,8,8,8,8,0,8,8,8,0,0,0,0,0,0,0,0,0,0,0,0,0,0,0,0,0,0,0,0,0,0,0,0,0,0,0,0,0,0,0,0],"split_type":[0,0,0,0,0,0,0,0,0,0,0,0,0,0,0,0,0,0,0,0,0,0,0,0,0,0,0,0,0,0,0,0,0,0,0,0,0,0,0,0,0,0,0,0,0,0,0,0,0,0,0,0,0,0,0,0,0,0,0,0,0,0,0,0,0,0,0,0,0,0,0,0,0,0,0,0,0],"sum_hessian":[8E3,7.196E3,8.04E2,5.501E3,1.695E3,3.96E2,4.08E2,4.216E3,1.285E3,7.15E2,9.8E2,1.65E2,2.31E2,2.35E2,1.73E2,2.762E3,1.454E3,4.54E2,8.31E2,4.64E2,2.51E2,7.2E2,2.6E2,5.5E1,1.1E2,1.25E2,1.06E2,8.5E1,1.5E2,1.544E3,1.218E3,7.09E2,7.45E2,1.55E2,2.99E2,3.95E2,4.36E2,1.16E2,3.48E2,1.21E2,1.3E2,2.74E2,4.46E2,3.8E1,2.22E2,6.8E1,4.2E1,5.4E1,7.1E1,8E2,7.44E2,3.18E2,3.91E2,4.76E2,2.69E2,1.66E2,1.33E2,2.22E2,1.73E2,1.56E2,2.8E2,8.1E1,3.5E1,2.23E2,1.25E2,8.1E1,4E1,4.2E1,8.8E1,7E1,2.04E2,2.21E2,2.25E2,1E1,2.8E1,6E1,1.62E2],"tree_param":{"num_deleted":"0","num_feature":"38","num_nodes":"77","size_leaf_vector":"1"}},{"base_weights":[2.9057782E0,-5.895698E3,5.2738617E4,-1.0717378E4,1.0896787E4,4.2068E4,6.296722E4,-1.2655826E4,-4.7688657E3,4.2173413E3,1.5147997E4,3.615853E4,4.731747E4,5.769356E4,3.4068755E3,-1.396101E4,-1.0168627E4,-9.573042E3,-1.379825E3,1.6800426E3,9.345109E3,1.3306014E4,2.017835E4,1.6734141E3,3.9873207E4,3.8912445E4,2.8315222E3,2.2705693E3,3.247919E3,-1.2842362E4,-7.6836835E2,-1.27999E4,-7.6507007E3,-1.3857163E4,-6.8327437E3,-3.5080532E3,1.6596912E2,-3.3035822E2,3.8307192E3,6.714899E3,1.2825566E4,8.422222E3,1.6280816E4,1.505539E4,2.0983807E4,1.6376636E3,2.2072566E3,1.5823251E3,2.1037515E3,-6.9901764E2,-5.800797E2,-7.062771E2,-5.844236E2,-4.3333127E2,-2.9137827E2,-7.510483E2,-5.448202E2,-2.518593E2,-3.7923892E2,-2.6600998E2,-8.105463E1,-1.0517962E2,6.519225E1,-1.5698932E2,2.6223516E1,1.1328999E2,3.5970627E2,2.109305E2,3.9785205E2,5.277325E2,6.937729E2,2.7173215E2,5.8087976E2,7.053139E2,9.040509E2,4.4255484E2,8.9085547E2,1.0075798E3,1.1835709E3],"categories":[],"categories_nodes":[],"categories_segments":[],"categories_sizes":[],"default_left":[0,0,0,0,0,0,0,0,0,0,0,0,0,0,0,0,0,0,0,0,0,0,0,0,0,0,0,0,0,0,0,0,0,0,0,0,0,0,0,0,0,0,0,0,0,0,0,0,0,0,0,0,0,0,0,0,0,0,0,0,0,0,0,0,0,0,0,0,0,0,0,0,0,0,0,0,0,0,0],"id":1,"left_children":[1,3,5,7,9,11,13,15,17,19,21,23,25,27,-1,29,31,33,35,37,39,41,43,-1,45,47,-1,-1,-1,49,-1,51,53,55,57,59,61,63,65,67,69,71,73,75,77,-1,-1,-1,-1,-1,-1,-1,-1,-1,-1,-1,-1,-1,-1,-1,-1,-1,-1,-1,-1,-1,-1,-1,-1,-1,-1,-1,-1,-1,-1,-1,-1,-1,-1],"loss_changes":[2.4891587E12,5.8284343E11,8.5213315E10,6.4420315E10,4.553964E10,1.0604642E10,7.2208876E9,1.3547536E10,2.23902E10,8.128985E9,8.821293E9,5.742428E8,1.3999473E10,1.5698756E10,0E0,4.1494774E9,9.54196E9,6.5852457E9,2.6587428E9,1.8172288E9,1.8088243E9,1.0337804E10,7.61045E8,0E0,8.352891E8,1.2421202E9,0E0,0E0,0E0,2.0193116E9,0E0,8.8098406E8,1.3312041E9,5.978358E8,4.3305574E8,1.1539881E9,1.2139256E9,5.25191E8,1.052182E9,3.385221E8,6.336205E7,2.562132E9,1.4947697E9,5.105449E8,2.1774336E7,0E0,0E0,0E0,0E0,0E0,0E0,0E0,0E0,0E0,0E0,0E0,0E0,0E0,0E0,0E0,0E0,0E0,0E0,0E0,0E0,0E0,0E0,0E0,0E0,0E0,0E0,0E0,0E0,0E0,0E0,0E0,0E0,0E0,0E0],"parents":[2147483647,0,0,1,1,2,2,3,3,4,4,5,5,6,6,7,7,8,8,9,9,10,10,11,11,12,12,13,13,15,15,16,16,17,17,18,18,19,19,20,20,21,21,22,22,24,24,25,25,29,29,31,31,32,32,33,33,34,34,35,35,36,36,37,37,38,38,39,39,40,40,41,41,42,42,43,43,44,44],"right_children":[2,4,6,8,10,12,14,16,18,20,22,24,26,28,-1,30,32,34,36,38,40,42,44,-1,46,48,-1,-1,-1,50,-1,52,54,56,58,60,62,64,66,68,70,72,74,76,78,-1,-1,-1,-1,-1,-1,-1,-1,-1,-1,-1,-1,-1,-1,-1,-1,-1,-1,-1,-1,-1,-1,-1,-1,-1,-1,-1,-1,-1,-1,-1,-1,-1,-1],"split_conditions":[1E0,1.4278516E2,9.571327E2,7.987221E1,2.2980959E2,7.4912604E2,6.715E1,9.944E1,1.0426E2,1.276E2,4.210141E2,6.747349E2,8.018E1,1.2565714E3,3.4068755E3,1E0,4.121445E1,6.281E1,1.3376E2,1.0426E2,1.9070164E2,9.224E1,5.465E1,1.6734141E3,7.967E1,6.45E1,2.8315222E3,2.2705693E3,3.247919E3,4.060914E1,-7.6836835E2,2.008032E1,1.4412E2,8.85E0,1E0,1.0529482E2,9.594883E1,8.128E1,1.9070164E2,1.5687505E2,1.3852E2,3.3281332E2,1.1403E2,5.9679224E2,5.9679224E2,1.6376636E3,2.2072566E3,1.5823251E3,2.1037515E3,-6.9901764E2,-5.800797E2,-7.062771E2,-5.844236E2,-4.3333127E2,-2.9137827E2,-7.510483E2,-5.448202E2,-2.518593E2,-3.7923892E2,-2.6600998E2,-8.105463E1,-1.0517962E2,6.519225E1,-1.5698932E2,2.6223516E1,1.1328999E2,3.5970627E2,2.109305E2,3.9785205E2,5.277325E2,6.937729E2,2.7173215E2,5.8087976E2,7.053139E2,9.040509E2,4.4255484E2,8.9085547E2,1.0075798E3,1.1835709E3],"split_indices":[37,8,8,8,8,8,0,0,0,0,8,8,0,8,0,10,8,0,0,0,8,0,0,0,0,0,0,0,0,8,0,8,0,0,11,8,8,0,8,8,0,8,0,8,8,0,0,0,0,0,0,0,0,0,0,0,0,0,0,0,0,0,0,0,0,0,0,0,0,0,0,0,0,0,0,0,0,0,0],"split_type":[0,0,0,0,0,0,0,0,0,0,0,0,0,0,0,0,0,0,0,0,0,0,0,0,0,0,0,0,0,0,0,0,0,0,0,0,0,0,0,0,0,0,0,0,0,0,0,0,0,0,0,0,0,0,0,0,0,0,0,0,0,0,0,0,0,0,0,0,0,0,0,0,0,0,0,0,0,0,0],"sum_hessian":[8E3,7.196E3,8.04E2,5.591E3,1.605E3,3.96E2,4.08E2,4.216E3,1.375E3,6.25E2,9.8E2,1.9E2,2.06E2,2.08E2,2E2,2.762E3,1.454E3,5.68E2,8.07E2,4.19E2,2.06E2,7.2E2,2.6E2,1.16E2,7.4E1,1.11E2,9.5E1,8E1,1.28E2,1.544E3,1.218E3,7.09E2,7.45E2,2.2E2,3.48E2,3.39E2,4.68E2,2.17E2,2.02E2,1.19E2,8.7E1,2.74E2,4.46E2,3.8E1,2.22E2,3.1E1,4.3E1,3.7E1,7.4E1,8E2,7.44E2,3.18E2,3.91E2,4.76E2,2.69E2,1.55E2,6.5E1,1.05E2,2.43E2,1.72E2,1.67E2,1.56E2,3.12E2,5E1,1.67E2,1.39E2,6.3E1,4.1E1,7.8E1,3.1E1,5.6E1,1.43E2,1.31E2,2.06E2,2.4E2,1.3E1,2.5E1,1.76E2,4.6E1],"tree_param":{"num_deleted":"0","num_feature":"38","num_nodes":"79","size_leaf_vector":"1"}},{"base_weights":[5.6032414E0,-5.6006655E3,5.0127727E4,-1.0348417E4,9.804836E3,3.9994918E4,5.984068E4,-1.2186538E4,-5.312453E3,3.4997769E3,1.4396699E4,3.50243E4,4.5733195E4,5.4835285E4,3.2373792E3,-1.3311544E4,-9.977904E3,-1.1750574E4,-2.926129E3,9.9402985E2,7.6599067E3,1.2644128E4,1.9182936E4,1.5904584E3,3.840199E4,3.567942E4,2.667166E3,2.1584426E3,6.173564E4,-1.2278042E4,-7.303737E2,-1.2181326E4,-7.616049E3,-7.1477155E2,-9.210539E3,-5.0297803E3,-3.6196378E2,-2.3554138E3,2.171412E3,4.314448E3,1.0851775E4,7.1401504E3,1.5046792E4,1.433681E4,1.9944443E4,1.5683455E3,2.1538423E3,1.5229213E3,1.9317155E3,2.67765E3,3.2535166E3,-6.646935E2,-5.553183E2,-6.710739E2,-5.562438E2,-4.4484717E2,-3.1976407E2,-5.039922E2,-3.4663675E2,-1.9082875E2,-3.381816E2,-1.0438537E2,5.248013E1,-1.6621916E2,-4.144423E0,3.445669E1,2.3586128E2,1.4422191E2,2.840032E2,4.0511032E2,6.032763E2,1.4932375E2,4.522959E2,6.509367E2,8.5903595E2,3.6772922E2,8.245434E2,9.205805E2,1.0599813E3],"categories":[],"categories_nodes":[],"categories_segments":[],"categories_sizes":[],"default_left":[0,0,0,0,0,0,0,0,0,0,0,0,0,0,0,0,0,0,0,0,0,0,0,0,0,0,0,0,0,0,0,0,0,0,0,0,0,0,0,0,0,0,0,0,0,0,0,0,0,0,0,0,0,0,0,0,0,0,0,0,0,0,0,0,0,0,0,0,0,0,0,0,0,0,0,0,0,0,0],"id":2,"left_children":[1,3,5,7,9,11,13,15,17,19,21,23,25,27,-1,29,31,33,35,37,39,41,43,-1,45,47,-1,-1,49,51,-1,53,55,-1,57,59,61,63,65,67,69,71,73,75,77,-1,-1,-1,-1,-1,-1,-1,-1,-1,-1,-1,-1,-1,-1,-1,-1,-1,-1,-1,-1,-1,-1,-1,-1,-1,-1,-1,-1,-1,-1,-1,-1,-1,-1],"loss_changes":[2.2485465E12,5.265008E11,7.683441E10,5.08657E10,4.9052172E10,9.721741E9,6.495011E9,9.880666E9,2.2595973E10,7.456137E9,7.986299E9,1.1350016E9,1.1945148E10,1.4159905E10,0E0,3.3927004E9,7.0057E9,2.4410112E9,5.802241E9,1.7718364E9,2.8256338E9,9.427206E9,6.772572E8,0E0,1.9705037E9,7.288422E7,0E0,0E0,3.525837E7,1.625768E9,0E0,7.730381E8,9.766912E8,0E0,3.300997E8,1.217365E9,1.186088E9,2.5735936E8,1.2495857E9,2.4334464E8,3.5945062E8,1.7224059E9,1.9445268E9,4.6528102E8,3.8723584E7,0E0,0E0,0E0,0E0,0E0,0E0,0E0,0E0,0E0,0E0,0E0,0E0,0E0,0E0,0E0,0E0,0E0,0E0,0E0,0E0,0E0,0E0,0E0,0E0,0E0,0E0,0E0,0E0,0E0,0E0,0E0,0E0,0E0,0E0],"parents":[2147483647,0,0,1,1,2,2,3,3,4,4,5,5,6,6,7,7,8,8,9,9,10,10,11,11,12,12,13,13,15,15,16,16,17,17,18,18,19,19,20,20,21,21,22,22,24,24,25,25,28,28,29,29,31,31,32,32,34,34,35,35,36,36,37,37,38,38,39,39,40,40,41,41,42,42,43,43,44,44],"right_children":[2,4,6,8,10,12,14,16,18,20,22,24,26,28,-1,30,32,34,36,38,40,42,44,-1,46,48,-1,-1,50,52,-1,54,56,-1,58,60,62,64,66,68,70,72,74,76,78,-1,-1,-1,-1,-1,-1,-1,-1,-1,-1,-1,-1,-1,-1,-1,-1,-1,-1,-1,-1,-1,-1,-1,-1,-1,-1,-1,-1,-1,-1,-1,-1,-1,-1],"split_conditions":[1E0,1.3551102E2,9.571327E2,7.523039E1,2.2980959E2,7.7763763E2,6.715E1,9.944E1,8.018E1,1.2503E2,4.210141E2,6.747349E2,7.474E1,1.2565714E3,3.2373792E3,1E0,4.060914E1,9.31E0,1.3324E2,8.933E1,1.7285435E2,8.774E1,5.465E1,1.5904584E3,7.967E1,6.45E1,2.667166E3,2.1584426E3,1.3937283E3,3.992813E1,-7.303737E2,2.008032E1,1.3324E2,-7.1477155E2,9.98004E1,1E0,9.791922E1,2.0391518E2,1.8609207E2,1.4235E2,1.9070164E2,6.921E1,1.1403E2,5.510132E2,7.52E1,1.5683455E3,2.1538423E3,1.5229213E3,1.9317155E3,2.67765E3,3.2535166E3,-6.646935E2,-5.553183E2,-6.710739E2,-5.562438E2,-4.4484717E2,-3.1976407E2,-5.039922E2,-3.4663675E2,-1.9082875E2,-3.381816E2,-1.0438537E2,5.248013E1,-1.6621916E2,-4.144423E0,3.445669E1,2.3586128E2,1.4422191E2,2.840032E2,4.0511032E2,6.032763E2,1.4932375E2,4.522959E2,6.509367E2,8.5903595E2,3.6772922E2,8.245434E2,9.205805E2,1.0599813E3],"split_indices":[37,8,8,8,8,8,0,0,0,0,8,8,0,8,0,10,8,0,0,0,8,0,0,0,0,0,0,0,8,8,0,8,0,0,8,11,8,8,8,0,8,0,0,8,0,0,0,0,0,0,0,0,0,0,0,0,0,0,0,0,0,0,0,0,0,0,0,0,0,0,0,0,0,0,0,0,0,0,0],"split_type":[0,0,0,0,0,0,0,0,0,0,0,0,0,0,0,0,0,0,0,0,0,0,0,0,0,0,0,0,0,0,0,0,0,0,0,0,0,0,0,0,0,0,0,0,0,0,0,0,0,0,0,0,0,0,0,0,0,0,0,0,0,0,0,0,0,0,0,0,0,0,0,0,0,0,0,0,0,0,0],"sum_hessian":[8E3,7.196E3,8.04E2,5.501E3,1.695E3,3.96E2,4.08E2,4.029E3,1.472E3,7.15E2,9.8E2,2.16E2,1.8E2,2.08E2,2E2,2.666E3,1.363E3,3.97E2,1.075E3,4.47E2,2.68E2,7.2E2,2.6E2,1.16E2,1E2,8E1,1E2,8E1,1.28E2,1.489E3,1.177E3,7.03E2,6.6E2,1.96E2,2.01E2,5.9E2,4.85E2,1.16E2,3.31E2,1.32E2,1.36E2,2.2E2,5E2,3.8E1,2.22E2,4.3E1,5.7E1,3.3E1,4.7E1,4.2E1,8.6E1,7.92E2,6.97E2,3.18E2,3.85E2,3.19E2,3.41E2,1.43E2,5.8E1,3.49E2,2.41E2,2.18E2,2.67E2,8.1E1,3.5E1,2.1E2,1.21E2,6.6E1,6.6E1,4.4E1,9.2E1,7E1,1.5E2,2.6E2,2.4E2,1E1,2.8E1,1.07E2,1.15E2],"tree_param":{"num_deleted":"0","num_feature":"38","num_nodes":"79","size_leaf_vector":"1"}},{"base_weights":[8.259503E0,-5.3205303E3,4.7649617E4,-9.67595E3,9.848104E3,3.8023973E4,5.6876344E4,-1.1424855E4,-4.3090825E3,3.8239075E3,1.3682251E4,3.329757E4,4.3480355E4,5.26806E4,3.1120122E3,-1.2591579E4,-9.161353E3,-8.661943E3,-1.2384302E3,9.2423615E2,7.5456597E3,1.201485E4,1.8235945E4,1.5116151E3,3.6518742E4,3.3938098E4,2.5351282E3,4.1611637E4,5.8635906E4,-1.1585531E4,-6.935189E2,-1.1372068E4,-6.680331E3,-1.2521338E4,-6.1932095E3,-3.0676902E3,2.1636696E2,-1.7583931E3,1.991514E3,4.551726E3,1.0139302E4,6.7858647E3,1.4297466E4,1.3650541E4,1.8956104E4,1.5259701E3,2.079253E3,1.3597748E3,1.7922375E3,1.7630497E3,2.2450254E3,2.601487E3,3.1153462E3,-6.313443E2,-5.2392474E2,-6.241186E2,-5.0332724E2,-3.774039E2,-2.3906693E2,-6.782271E2,-4.932933E2,-2.31122E2,-3.4251056E2,-2.439783E2,-7.016683E1,-9.43933E1,6.2004223E1,-1.6298149E2,-3.6026943E1,1.4801093E1,1.7841313E2,1.5287773E2,3.2224432E2,3.7891187E2,5.758674E2,2.0122905E2,4.7931125E2,6.185146E2,8.162624E2,5.4521924E2,9.824725E2,9.071879E2,1.0806018E3],"categories":[],"categories_nodes":[],"categories_segments":[],"categories_sizes":[],"default_left":[0,0,0,0,0,0,0,0,0,0,0,0,0,0,0,0,0,0,0,0,0,0,0,0,0,0,0,0,0,0,0,0,0,0,0,0,0,0,0,0,0,0,0,0,0,0,0,0,0,0,0,0,0,0,0,0,0,0,0,0,0,0,0,0,0,0,0,0,0,0,0,0,0,0,0,0,0,0,0,0,0,0,0],"id":3,"left_children":[1,3,5,7,9,11,13,15,17,19,21,23,25,27,-1,29,31,33,35,37,39,41,43,-1,45,47,-1,49,51,53,-1,55,57,59,61,63,65,67,69,71,73,75,77,79,81,-1,-1,-1,-1,-1,-1,-1,-1,-1,-1,-1,-1,-1,-1,-1,-1,-1,-1,-1,-1,-1,-1,-1,-1,-1,-1,-1,-1,-1,-1,-1,-1,-1,-1,-1,-1,-1,-1],"loss_changes":[2.0314737E12,4.755706E11,6.933198E10,5.2438008E10,3.7042536E10,8.790475E9,5.925896E9,1.1021255E10,1.8381054E10,6.7487293E9,7.2294564E9,1.0385654E9,1.0753081E10,1.3116965E10,0E0,3.4158674E9,7.8112195E9,5.343785E9,2.1509153E9,1.01418E9,2.0815104E9,8.508662E9,6.031196E8,0E0,1.8006999E9,6.6502656E7,0E0,2.1300838E8,4.201513E8,1.6683827E9,0E0,9.745367E8,1.0844447E9,4.7838413E8,3.2850227E8,1.07273754E9,9.738583E8,1.550159E8,6.75305E8,3.4519757E8,4.2799104E8,1.6703212E9,1.7559142E9,4.2821888E8,8.901427E7,0E0,0E0,0E0,0E0,0E0,0E0,0E0,0E0,0E0,0E0,0E0,0E0,0E0,0E0,0E0,0E0,0E0,0E0,0E0,0E0,0E0,0E0,0E0,0E0,0E0,0E0,0E0,0E0,0E0,0E0,0E0,0E0,0E0,0E0,0E0,0E0,0E0,0E0],"parents":[2147483647,0,0,1,1,2,2,3,3,4,4,5,5,6,6,7,7,8,8,9,9,10,10,11,11,12,12,13,13,15,15,16,16,17,17,18,18,19,19,20,20,21,21,22,22,24,24,25,25,27,27,28,28,29,29,31,31,32,32,33,33,34,34,35,35,36,36,37,37,38,38,39,39,40,40,41,41,42,42,43,43,44,44],"right_children":[2,4,6,8,10,12,14,16,18,20,22,24,26,28,-1,30,32,34,36,38,40,42,44,-1,46,48,-1,50,52,54,-1,56,58,60,62,64,66,68,70,72,74,76,78,80,82,-1,-1,-1,-1,-1,-1,-1,-1,-1,-1,-1,-1,-1,-1,-1,-1,-1,-1,-1,-1,-1,-1,-1,-1,-1,-1,-1,-1,-1,-1,-1,-1,-1,-1,-1,-1,-1,-1],"split_conditions":[1E0,1.4278516E2,9.571327E2,7.987221E1,2.2980959E2,7.7763763E2,6.967E1,9.991E1,1.0426E2,1.1912E2,4.210141E2,6.747349E2,7.474E1,1.1956522E3,3.1120122E3,1E0,4.467776E1,6.281E1,1.3584E2,8.933E1,1.7731993E2,8.774E1,5.465E1,1.5116151E3,8.353E1,6.104E1,2.5351282E3,5.828E1,1.3937283E3,3.992813E1,-6.935189E2,2.52738E1,1.5196E2,8.85E0,1E0,1.0385757E2,9.5188644E1,7.726E1,1.7731993E2,1.4015E2,1.3324E2,3.3281332E2,1.1403E2,6.747349E2,5.9679224E2,1.5259701E3,2.079253E3,1.3597748E3,1.7922375E3,1.7630497E3,2.2450254E3,2.601487E3,3.1153462E3,-6.313443E2,-5.2392474E2,-6.241186E2,-5.0332724E2,-3.774039E2,-2.3906693E2,-6.782271E2,-4.932933E2,-2.31122E2,-3.4251056E2,-2.439783E2,-7.016683E1,-9.43933E1,6.2004223E1,-1.6298149E2,-3.6026943E1,1.4801093E1,1.7841313E2,1.5287773E2,3.2224432E2,3.7891187E2,5.758674E2,2.0122905E2,4.7931125E2,6.185146E2,8.162624E2,5.4521924E2,9.824725E2,9.071879E2,1.0806018E3],"split_indices":[37,8,8,8,8,8,0,0,0,0,8,8,0,8,0,10,8,0,0,0,8,0,0,0,0,0,0,0,8,8,0,8,0,0,11,8,8,0,8,0,0,8,0,8,8,0,0,0,0,0,0,0,0,0,0,0,0,0,0,0,0,0,0,0,0,0,0,0,0,0,0,0,0,0,0,0,0,0,0,0,0,0,0],"split_type":[0,0,0,0,0,0,0,0,0,0,0,0,0,0,0,0,0,0,0,0,0,0,0,0,0,0,0,0,0,0,0,0,0,0,0,0,0,0,0,0,0,0,0,0,0,0,0,0,0,0,0,0,0,0,0,0,0,0,0,0,0,0,0,0,0,0,0,0,0,0,0,0,0,0,0,0,0,0,0,0,0,0,0],"sum_hessian":[8E3,7.196E3,8.04E2,5.591E3,1.605E3,3.96E2,4.08E2,4.216E3,1.375E3,6.25E2,9.8E2,2.16E2,1.8E2,2.35E2,1.73E2,2.779E3,1.437E3,5.68E2,8.07E2,3.52E2,2.73E2,7.2E2,2.6E2,1.16E2,1E2,8E1,1E2,8.5E1,1.5E2,1.561E3,1.218E3,7.58E2,6.79E2,2.2E2,3.48E2,3.57E2,4.5E2,1E2,2.52E2,1.28E2,1.45E2,2.2E2,5E2,3.8E1,2.22E2,4.9E1,5.1E1,2.1E1,5.9E1,3.3E1,5.2E1,5.9E1,9.1E1,7.99E2,7.62E2,4.05E2,3.53E2,4.64E2,2.15E2,1.55E2,6.5E1,1.05E2,2.43E2,1.7E2,1.87E2,1.47E2,3.03E2,4E1,6E1,1.22E2,1.3E2,7.3E1,5.5E1,5.3E1,9.2E1,1.12E2,1.08E2,2.6E2,2.4E2,2.8E1,1E1,1.76E2,4.6E1],"tree_param":{"num_deleted":"0","num_feature":"38","num_nodes":"83","size_leaf_vector":"1"}},{"base_weights":[1.0972644E1,-5.0543135E3,4.5296504E4,-9.342779E3,8.860896E3,3.372051E4,5.2216434E4,-1.1197984E4,-5.2673193E3,3.1721719E3,1.3003879E4,1.4366804E3,3.66447E4,4.6891062E4,5.6139105E4,-1.2983931E4,-1.0214127E4,-1.1333926E4,-3.1652322E3,-2.0076152E2,5.733443E3,1.1151178E4,1.674359E4,3.0287078E4,2.1210967E3,3.527439E4,5.442536E4,5.2547668E4,3.0837144E3,-5.908433E2,-6.5983276E2,-1.1711457E4,-8.813991E3,-6.4565497E2,-9.221457E3,-5.156119E3,-8.467053E2,-2.4599934E3,9.189579E2,3.4142776E3,9.292314E3,7.107278E3,1.444933E4,1.4807858E4,1.8623066E4,1.3389805E3,1.6575071E3,1.5000576E3,1.9393746E3,2.4364077E3,2.998993E3,2.2969387E3,2.9429917E3,-6.2730536E2,-5.553134E2,-4.8443433E2,-3.326609E2,-4.736324E2,-3.1265323E2,-1.8398853E2,-3.2058212E2,-1.416145E2,2.5092285E1,-2.1802759E2,-8.281268E1,-1.330431E2,8.935673E1,1.14389946E2,2.81305E2,3.522212E2,5.548753E2,1.4487268E2,4.3594946E2,6.367044E2,8.221263E2,4.667068E2,8.938012E2,8.519006E2,1.0284458E3],"categories":[],"categories_nodes":[],"categories_segments":[],"categories_sizes":[],"default_left":[0,0,0,0,0,0,0,0,0,0,0,0,0,0,0,0,0,0,0,0,0,0,0,0,0,0,0,0,0,0,0,0,0,0,0,0,0,0,0,0,0,0,0,0,0,0,0,0,0,0,0,0,0,0,0,0,0,0,0,0,0,0,0,0,0,0,0,0,0,0,0,0,0,0,0,0,0,0,0],"id":4,"left_children":[1,3,5,7,9,11,13,15,17,19,21,-1,23,25,27,29,31,33,35,37,39,41,43,45,-1,47,49,51,-1,-1,-1,53,55,-1,57,59,61,63,65,67,69,71,73,75,77,-1,-1,-1,-1,-1,-1,-1,-1,-1,-1,-1,-1,-1,-1,-1,-1,-1,-1,-1,-1,-1,-1,-1,-1,-1,-1,-1,-1,-1,-1,-1,-1,-1,-1],"loss_changes":[1.8355316E12,4.2956312E11,6.272385E10,4.1540583E10,3.9930577E10,3.380183E9,7.8542275E9,6.5093304E9,2.193675E10,6.1866716E9,6.610223E9,0E0,5.620302E9,1.724783E10,2.4048435E9,1.7647206E8,5.0163384E9,1.3587497E9,5.9086336E9,7.8646944E8,3.327493E9,8.686641E9,8.993505E8,4.617011E7,0E0,4.8509747E8,1.2227707E9,4.7632876E9,0E0,0E0,0E0,4.551803E8,2.3283057E9,0E0,8.467456E7,1.2535316E9,1.5892751E9,1.501159E8,6.512018E8,6.0503834E8,5.710848E8,1.996674E9,1.0282271E9,2.5874104E9,1.4303232E8,0E0,0E0,0E0,0E0,0E0,0E0,0E0,0E0,0E0,0E0,0E0,0E0,0E0,0E0,0E0,0E0,0E0,0E0,0E0,0E0,0E0,0E0,0E0,0E0,0E0,0E0,0E0,0E0,0E0,0E0,0E0,0E0,0E0,0E0],"parents":[2147483647,0,0,1,1,2,2,3,3,4,4,5,5,6,6,7,7,8,8,9,9,10,10,12,12,13,13,14,14,15,15,16,16,17,17,18,18,19,19,20,20,21,21,22,22,23,23,25,25,26,26,27,27,31,31,32,32,34,34,35,35,36,36,37,37,38,38,39,39,40,40,41,41,42,42,43,43,44,44],"right_children":[2,4,6,8,10,12,14,16,18,20,22,-1,24,26,28,30,32,34,36,38,40,42,44,46,-1,48,50,52,-1,-1,-1,54,56,-1,58,60,62,64,66,68,70,72,74,76,78,-1,-1,-1,-1,-1,-1,-1,-1,-1,-1,-1,-1,-1,-1,-1,-1,-1,-1,-1,-1,-1,-1,-1,-1,-1,-1,-1,-1,-1,-1,-1,-1,-1,-1],"split_conditions":[1E0,1.3551102E2,8.660726E2,6.941552E1,2.2980959E2,6.747349E2,1.0838625E3,6.104E1,7.372E1,1.0968E2,3.8865546E2,1.4366804E3,8.048E1,7.284E1,6.775E1,1E0,3.520507E1,1.014E1,1.3004E2,1.6527788E2,1.8196707E2,9.841E1,7.52E1,7.11E1,2.1210967E3,6.158E1,8.597E1,1.3937283E3,3.0837144E3,-5.908433E2,-6.5983276E2,1.6809547E1,1.2948E2,-6.4565497E2,1.01146324E2,1E0,9.188361E1,8.507E1,8.018E1,1.413E2,1.3324E2,7.839E1,2.8006723E2,5.3337396E2,4.584766E2,1.3389805E3,1.6575071E3,1.5000576E3,1.9393746E3,2.4364077E3,2.998993E3,2.2969387E3,2.9429917E3,-6.2730536E2,-5.553134E2,-4.8443433E2,-3.326609E2,-4.736324E2,-3.1265323E2,-1.8398853E2,-3.2058212E2,-1.416145E2,2.5092285E1,-2.1802759E2,-8.281268E1,-1.330431E2,8.935673E1,1.14389946E2,2.81305E2,3.522212E2,5.548753E2,1.4487268E2,4.3594946E2,6.367044E2,8.221263E2,4.667068E2,8.938012E2,8.519006E2,1.0284458E3],"split_indices":[37,8,8,8,8,8,8,0,0,0,8,0,0,0,0,10,8,0,0,8,8,0,0,0,0,0,0,8,0,0,0,8,0,0,8,11,8,0,0,0,0,0,8,8,8,0,0,0,0,0,0,0,0,0,0,0,0,0,0,0,0,0,0,0,0,0,0,0,0,0,0,0,0,0,0,0,0,0,0],"split_type":[0,0,0,0,0,0,0,0,0,0,0,0,0,0,0,0,0,0,0,0,0,0,0,0,0,0,0,0,0,0,0,0,0,0,0,0,0,0,0,0,0,0,0,0,0,0,0,0,0,0,0,0,0,0,0,0,0,0,0,0,0,0,0,0,0,0,0,0,0,0,0,0,0,0,0,0,0,0,0],"sum_hessian":[8E3,7.196E3,8.04E2,5.501E3,1.695E3,3.03E2,5.01E2,3.779E3,1.722E3,7.15E2,9.8E2,1.16E2,1.87E2,2.18E2,2.83E2,1.338E3,2.441E3,4.42E2,1.28E3,3.09E2,4.06E2,6.58E2,3.22E2,9.2E1,9.5E1,8.8E1,1.3E2,1.78E2,1.05E2,2.15E2,1.123E3,1.176E3,1.265E3,2.5E2,1.92E2,6.88E2,5.92E2,1.02E2,2.07E2,2.47E2,1.59E2,2.97E2,3.61E2,1.63E2,1.59E2,4.6E1,4.6E1,3.9E1,4.9E1,6.9E1,6.1E1,9.1E1,8.7E1,4.86E2,6.9E2,8.98E2,3.67E2,1.75E2,1.7E1,3.18E2,3.7E2,2.39E2,3.53E2,2.9E1,7.3E1,4E1,1.67E2,1.65E2,8.2E1,7.3E1,8.6E1,8.3E1,2.14E2,1.98E2,1.63E2,6E1,1.03E2,9.3E1,6.6E1],"tree_param":{"num_deleted":"0","num_feature":"38","num_nodes":"79","size_leaf_vector":"1"}},{"base_weights":[1.3509761E1,-4.801468E3,4.3061184E4,-8.93222E3,8.24742E3,3.4339863E4,5.142134E4,-1.0638945E4,-5.104996E3,2.6704126E3,1.2216534E4,3.0035506E4,3.931061E4,4.7085766E4,2.7836824E3,-1.2111956E4,-9.562804E3,-1.0584306E4,-3.0130393E3,-1.9079138E2,5.195942E3,1.0464304E4,1.5916443E4,1.3203335E3,3.2172205E4,3.2503629E4,2.3941301E3,3.6988176E4,5.3061105E4,-1.1066497E4,-6.268705E2,-1.0777594E4,-7.814272E3,-6.1350085E2,-8.576445E3,-4.6477295E3,-4.9892245E2,-2.347006E3,9.413517E2,2.4591196E3,7.794547E3,6.569794E3,1.355869E4,1.4075762E4,1.7703664E4,1.3636478E3,1.8401309E3,1.3801794E3,1.8105371E3,1.5877075E3,2.0049436E3,2.3937637E3,2.871531E3,-5.839904E2,-5.147027E2,-5.7393976E2,-4.8659937E2,-4.405916E2,-3.034899E2,-4.4717358E2,-3.0488135E2,-1.6863942E2,-2.9974786E2,-1.0622111E2,4.175648E1,-1.881458E2,-5.9793995E1,-1.3526514E2,8.289242E1,8.597503E1,2.131314E2,3.2640683E2,5.152258E2,1.9338457E2,4.667878E2,5.514515E2,7.4301776E2,4.43754E2,8.4954095E2,8.097587E2,9.7779114E2],"categories":[],"categories_nodes":[],"categories_segments":[],"categories_sizes":[],"default_left":[0,0,0,0,0,0,0,0,0,0,0,0,0,0,0,0,0,0,0,0,0,0,0,0,0,0,0,0,0,0,0,0,0,0,0,0,0,0,0,0,0,0,0,0,0,0,0,0,0,0,0,0,0,0,0,0,0,0,0,0,0,0,0,0,0,0,0,0,0,0,0,0,0,0,0,0,0,0,0,0,0],"id":5,"left_children":[1,3,5,7,9,11,13,15,17,19,21,23,25,27,-1,29,31,33,35,37,39,41,43,-1,45,47,-1,49,51,53,-1,55,57,-1,59,61,63,65,67,69,71,73,75,77,79,-1,-1,-1,-1,-1,-1,-1,-1,-1,-1,-1,-1,-1,-1,-1,-1,-1,-1,-1,-1,-1,-1,-1,-1,-1,-1,-1,-1,-1,-1,-1,-1,-1,-1,-1,-1],"loss_changes":[1.6586027E12,3.8800435E11,5.6927977E10,3.565627E10,3.828442E10,7.31349E9,4.919001E9,5.876089E9,1.9316777E10,5.210977E9,6.3878595E9,8.3297894E8,9.004876E9,1.0647732E10,0E0,5.693604E8,4.565451E9,1.4720246E9,5.023968E9,8.29757E8,2.7046984E9,8.214143E9,8.133755E8,0E0,1.9907871E9,8.896184E8,0E0,4.5490176E7,1.735721E8,1.0195354E8,0E0,8.333558E8,1.5144428E9,0E0,1.4198067E8,1.2525476E9,1.0491602E9,1.8619718E8,5.871428E8,2.4344538E8,5.557463E8,2.2583818E9,1.0972365E9,2.33549E9,1.3032243E8,0E0,0E0,0E0,0E0,0E0,0E0,0E0,0E0,0E0,0E0,0E0,0E0,0E0,0E0,0E0,0E0,0E0,0E0,0E0,0E0,0E0,0E0,0E0,0E0,0E0,0E0,0E0,0E0,0E0,0E0,0E0,0E0,0E0,0E0,0E0,0E0],"parents":[2147483647,0,0,1,1,2,2,3,3,4,4,5,5,6,6,7,7,8,8,9,9,10,10,11,11,12,12,13,13,15,15,16,16,17,17,18,18,19,19,20,20,21,21,22,22,24,24,25,25,27,27,28,28,29,29,31,31,32,32,34,34,35,35,36,36,37,37,38,38,39,39,40,40,41,41,42,42,43,43,44,44],"right_children":[2,4,6,8,10,12,14,16,18,20,22,24,26,28,-1,30,32,34,36,38,40,42,44,-1,46,48,-1,50,52,54,-1,56,58,-1,60,62,64,66,68,70,72,74,76,78,80,-1,-1,-1,-1,-1,-1,-1,-1,-1,-1,-1,-1,-1,-1,-1,-1,-1,-1,-1,-1,-1,-1,-1,-1,-1,-1,-1,-1,-1,-1,-1,-1,-1,-1,-1,-1],"split_conditions":[1E0,1.3290802E2,9.571327E2,6.941552E1,2.2451355E2,7.7763763E2,6.715E1,7.176E1,7.573E1,1.1269E2,3.8865546E2,8.45E1,8.164E1,1.2565714E3,2.7836824E3,1E0,4.1666668E1,1.014E1,1.3732E2,1.6142816E2,1.6527788E2,9.841E1,7.52E1,1.3203335E3,6.189651E2,6.775E1,2.3941301E3,1.0838625E3,1.4811117E3,4.060914E1,-6.268705E2,2.5862068E1,1.2561E2,-6.1350085E2,1.01146324E2,1E0,9.393452E1,9.417E1,8.018E1,1.4322E2,1.4522E2,3.1435855E2,2.560273E2,5.3337396E2,4.584766E2,1.3636478E3,1.8401309E3,1.3801794E3,1.8105371E3,1.5877075E3,2.0049436E3,2.3937637E3,2.871531E3,-5.839904E2,-5.147027E2,-5.7393976E2,-4.8659937E2,-4.405916E2,-3.034899E2,-4.4717358E2,-3.0488135E2,-1.6863942E2,-2.9974786E2,-1.0622111E2,4.175648E1,-1.881458E2,-5.9793995E1,-1.3526514E2,8.289242E1,8.597503E1,2.131314E2,3.2640683E2,5.152258E2,1.9338457E2,4.667878E2,5.514515E2,7.4301776E2,4.43754E2,8.4954095E2,8.097587E2,9.7779114E2],"split_indices":[37,8,8,8,8,8,0,0,0,0,8,0,0,8,0,10,8,0,0,8,8,0,0,0,8,0,0,8,8,8,0,8,0,0,8,11,8,0,0,0,0,8,8,8,8,0,0,0,0,0,0,0,0,0,0,0,0,0,0,0,0,0,0,0,0,0,0,0,0,0,0,0,0,0,0,0,0,0,0,0,0],"split_type":[0,0,0,0,0,0,0,0,0,0,0,0,0,0,0,0,0,0,0,0,0,0,0,0,0,0,0,0,0,0,0,0,0,0,0,0,0,0,0,0,0,0,0,0,0,0,0,0,0,0,0,0,0,0,0,0,0,0,0,0,0,0,0,0,0,0,0,0,0,0,0,0,0,0,0,0,0,0,0,0,0],"sum_hessian":[8E3,7.196E3,8.04E2,5.466E3,1.73E3,3.96E2,4.08E2,3.779E3,1.687E3,7.2E2,1.01E3,2.16E2,1.8E2,2.08E2,2E2,1.591E3,2.188E3,4.65E2,1.222E3,3.38E2,3.82E2,6.88E2,3.22E2,8.5E1,1.31E2,1.03E2,7.7E1,8E1,1.28E2,4.68E2,1.123E3,1.288E3,9E2,2.5E2,2.15E2,7.4E2,4.82E2,1.16E2,2.22E2,1.87E2,1.95E2,3.06E2,3.82E2,1.63E2,1.59E2,6.7E1,6.4E1,4.8E1,5.5E1,3.4E1,4.6E1,6.4E1,6.4E1,2.53E2,2.15E2,7.65E2,5.23E2,5.7E2,3.3E2,1.85E2,3E1,3.82E2,3.58E2,2.17E2,2.65E2,5.1E1,6.5E1,3.6E1,1.86E2,1.34E2,5.3E1,1.32E2,6.3E1,1.56E2,1.5E2,1.33E2,2.49E2,6E1,1.03E2,9.3E1,6.6E1],"tree_param":{"num_deleted":"0","num_feature":"38","num_nodes":"81","size_leaf_vector":"1"}},{"base_weights":[1.5608678E1,-4.561332E3,4.0935145E4,-8.204495E3,8.804616E3,3.04404E4,4.7208984E4,-9.801544E3,-3.5218835E3,4.596366E3,1.2475498E4,1.2954358E3,3.309874E4,4.236019E4,5.0781785E4,-1.0816299E4,-7.832965E3,-8.169677E3,-1.3804247E3,1.7249861E3,8.775051E3,1.0965991E4,1.5683839E4,2.8379332E4,1.9766735E3,3.3210254E4,5.0346133E4,4.7079613E4,2.768996E3,-9.968382E3,-5.946964E2,-9.494872E3,-5.3438037E3,-1.0746628E4,-5.7009766E3,-3.3409644E3,-2.1797205E1,-3.3736087E2,3.1806545E3,5.3937705E3,1.1401827E4,6.248994E3,1.3148526E4,1.1500748E4,1.634508E4,1.2269374E3,1.5765985E3,1.3534203E3,1.82147E3,2.2356003E3,2.7220623E3,2.0130438E3,2.6471687E3,-5.433149E2,-4.5069296E2,-5.25284E2,-4.1059503E2,-3.0549887E2,-1.7345226E2,-5.819789E2,-4.2365964E2,-3.32307E2,-2.4468608E2,-2.386585E2,-8.183478E1,-7.081113E1,6.887391E1,-1.2516393E2,2.7606398E1,9.261064E1,2.8101218E2,1.8097722E2,3.3647714E2,4.629614E2,6.489E2,1.0422772E2,3.9622562E2,5.861978E2,7.6000006E2,4.4766098E2,8.585718E2,7.7940356E2,9.424088E2],"categories":[],"categories_nodes":[],"categories_segments":[],"categories_sizes":[],"default_left":[0,0,0,0,0,0,0,0,0,0,0,0,0,0,0,0,0,0,0,0,0,0,0,0,0,0,0,0,0,0,0,0,0,0,0,0,0,0,0,0,0,0,0,0,0,0,0,0,0,0,0,0,0,0,0,0,0,0,0,0,0,0,0,0,0,0,0,0,0,0,0,0,0,0,0,0,0,0,0,0,0,0,0],"id":6,"left_children":[1,3,5,7,9,11,13,15,17,19,21,-1,23,25,27,29,31,33,35,37,39,41,43,45,-1,47,49,51,-1,53,-1,55,57,59,61,63,65,67,69,71,73,75,77,79,81,-1,-1,-1,-1,-1,-1,-1,-1,-1,-1,-1,-1,-1,-1,-1,-1,-1,-1,-1,-1,-1,-1,-1,-1,-1,-1,-1,-1,-1,-1,-1,-1,-1,-1,-1,-1,-1,-1],"loss_changes":[1.4986643E12,3.5052533E11,5.1566084E10,4.2263118E10,2.376346E10,2.8046787E9,6.5453425E9,8.3392594E9,1.4321125E10,8.623848E9,3.8138102E9,0E0,4.587274E9,1.4330528E10,2.227372E9,2.4216535E9,5.897904E9,2.8269568E9,2.6289428E9,1.285969E9,2.54089E9,5.713928E9,5.3395456E8,5.823365E8,0E0,1.089921E9,2.1915238E8,4.4257444E9,0E0,1.2408095E9,0E0,1.03030784E9,8.090399E8,3.5001754E8,1.4601472E8,9.782963E8,1.1414428E9,3.4430973E8,8.030436E8,2.837371E8,4.3367834E8,1.2394476E9,9.440215E8,4.096635E8,1.2874957E8,0E0,0E0,0E0,0E0,0E0,0E0,0E0,0E0,0E0,0E0,0E0,0E0,0E0,0E0,0E0,0E0,0E0,0E0,0E0,0E0,0E0,0E0,0E0,0E0,0E0,0E0,0E0,0E0,0E0,0E0,0E0,0E0,0E0,0E0,0E0,0E0,0E0,0E0],"parents":[2147483647,0,0,1,1,2,2,3,3,4,4,5,5,6,6,7,7,8,8,9,9,10,10,12,12,13,13,14,14,15,15,16,16,17,17,18,18,19,19,20,20,21,21,22,22,23,23,25,25,26,26,27,27,29,29,31,31,32,32,33,33,34,34,35,35,36,36,37,37,38,38,39,39,40,40,41,41,42,42,43,43,44,44],"right_children":[2,4,6,8,10,12,14,16,18,20,22,-1,24,26,28,30,32,34,36,38,40,42,44,46,-1,48,50,52,-1,54,-1,56,58,60,62,64,66,68,70,72,74,76,78,80,82,-1,-1,-1,-1,-1,-1,-1,-1,-1,-1,-1,-1,-1,-1,-1,-1,-1,-1,-1,-1,-1,-1,-1,-1,-1,-1,-1,-1,-1,-1,-1,-1,-1,-1,-1,-1,-1,-1],"split_conditions":[1E0,1.4983768E2,8.660726E2,7.987221E1,2.560273E2,6.747349E2,1.0838625E3,9.991E1,9.224E1,1.2218E2,4.210141E2,1.2954358E3,8.531E1,7.691E1,6.55E1,1E0,4.99002E1,6.281E1,1.2639E2,9.602E1,1.95427E2,8.597E1,5.465E1,7.284E1,1.9766735E3,6.158E1,8.597E1,1.3937283E3,2.768996E3,3.992813E1,-5.946964E2,2.919708E1,1.5342E2,8.85E0,1.0670731E2,1.11111115E2,1.0529482E2,7.808E1,2.0391518E2,1.3793E2,1.3852E2,6.715E1,1.1403E2,6.747349E2,5.9679224E2,1.2269374E3,1.5765985E3,1.3534203E3,1.82147E3,2.2356003E3,2.7220623E3,2.0130438E3,2.6471687E3,-5.433149E2,-4.5069296E2,-5.25284E2,-4.1059503E2,-3.0549887E2,-1.7345226E2,-5.819789E2,-4.2365964E2,-3.32307E2,-2.4468608E2,-2.386585E2,-8.183478E1,-7.081113E1,6.887391E1,-1.2516393E2,2.7606398E1,9.261064E1,2.8101218E2,1.8097722E2,3.3647714E2,4.629614E2,6.489E2,1.0422772E2,3.9622562E2,5.861978E2,7.6000006E2,4.4766098E2,8.585718E2,7.7940356E2,9.424088E2],"split_indices":[37,8,8,8,8,8,8,0,0,0,8,0,0,0,0,10,8,0,0,0,8,0,0,0,0,0,0,8,0,8,0,8,0,0,8,8,8,0,8,0,0,0,0,8,8,0,0,0,0,0,0,0,0,0,0,0,0,0,0,0,0,0,0,0,0,0,0,0,0,0,0,0,0,0,0,0,0,0,0,0,0,0,0],"split_type":[0,0,0,0,0,0,0,0,0,0,0,0,0,0,0,0,0,0,0,0,0,0,0,0,0,0,0,0,0,0,0,0,0,0,0,0,0,0,0,0,0,0,0,0,0,0,0,0,0,0,0,0,0,0,0,0,0,0,0,0,0,0,0,0,0,0,0,0,0,0,0,0,0,0,0,0,0,0,0,0,0,0,0],"sum_hessian":[8E3,7.196E3,8.04E2,5.655E3,1.541E3,3.03E2,5.01E2,4.216E3,1.439E3,7.19E2,8.22E2,1.16E2,1.87E2,2.18E2,2.83E2,2.779E3,1.437E3,4.53E2,9.86E2,4.27E2,2.92E2,5.62E2,2.6E2,1.11E2,7.6E1,1.04E2,1.14E2,1.63E2,1.2E2,1.561E3,1.218E3,8.6E2,5.77E2,2.2E2,2.33E2,4.03E2,5.83E2,1.77E2,2.5E2,1.29E2,1.63E2,1.79E2,3.83E2,3.8E1,2.22E2,5.4E1,5.7E1,3.9E1,6.5E1,5.3E1,6.1E1,7.9E1,8.4E1,7.99E2,7.62E2,4.77E2,3.83E2,4.08E2,1.69E2,1.55E2,6.5E1,1.04E2,1.29E2,2.18E2,1.85E2,2.92E2,2.91E2,5.1E1,1.26E2,1.63E2,8.7E1,5.7E1,7.2E1,7.2E1,9.1E1,5.2E1,1.27E2,2.3E2,1.53E2,2.8E1,1E1,1.76E2,4.6E1],"tree_param":{"num_deleted":"0","num_feature":"38","num_nodes":"83","size_leaf_vector":"1"}},{"base_weights":[1.7766497E1,-4.3330054E3,3.8915266E4,-8.0646953E3,7.455257E3,3.10128E4,4.6490727E4,-9.607902E3,-4.6041587E3,2.4105984E3,1.1045508E4,2.6553441E4,3.4977656E4,4.3001348E4,2.547813E3,-1.0886656E4,-8.592822E3,-9.556565E3,-2.713377E3,-1.9079909E2,4.7068467E3,9.446688E3,1.4421797E4,1.1079457E3,2.7756145E4,2.8905033E4,2.1200474E3,3.375572E4,4.7982293E4,-9.980954E3,-5.658465E2,-9.827321E3,-7.1403706E3,-5.537243E2,-7.7484424E3,-4.0565369E3,-1.5430696E2,-2.1509805E3,8.384925E2,2.2439377E3,7.0452144E3,5.308279E3,1.1896371E4,1.267116E4,1.6126063E4,1.1824603E3,1.5424377E3,1.1641254E3,1.5708901E3,1.4206293E3,1.8273245E3,2.000829E3,2.4935437E3,-5.188531E2,-4.4573972E2,-5.474796E2,-4.660897E2,-3.9812186E2,-2.6935513E2,-4.0359866E2,-2.7786542E2,-1.4773528E2,-2.6938086E2,-9.450967E1,4.5116615E1,-1.7133684E2,-5.566244E1,-1.2321496E2,7.437511E1,7.440969E1,1.859904E2,2.6307138E2,4.2249765E2,7.848323E1,3.4159604E2,5.1364087E2,6.917601E2,3.9409283E2,7.6792163E2,7.533017E2,9.250112E2],"categories":[],"categories_nodes":[],"categories_segments":[],"categories_sizes":[],"default_left":[0,0,0,0,0,0,0,0,0,0,0,0,0,0,0,0,0,0,0,0,0,0,0,0,0,0,0,0,0,0,0,0,0,0,0,0,0,0,0,0,0,0,0,0,0,0,0,0,0,0,0,0,0,0,0,0,0,0,0,0,0,0,0,0,0,0,0,0,0,0,0,0,0,0,0,0,0,0,0,0,0],"id":7,"left_children":[1,3,5,7,9,11,13,15,17,19,21,23,25,27,-1,29,31,33,35,37,39,41,43,-1,45,47,-1,49,51,53,-1,55,57,-1,59,61,63,65,67,69,71,73,75,77,79,-1,-1,-1,-1,-1,-1,-1,-1,-1,-1,-1,-1,-1,-1,-1,-1,-1,-1,-1,-1,-1,-1,-1,-1,-1,-1,-1,-1,-1,-1,-1,-1,-1,-1,-1,-1],"loss_changes":[1.354211E12,3.1665717E11,4.674932E10,2.9151298E10,3.1324537E10,6.090457E9,4.1818522E9,4.813062E9,1.5780368E10,4.307759E9,5.32122E9,3.944366E8,8.105738E9,9.248571E9,0E0,5.3744435E8,3.7167432E9,1.1931648E9,4.2031186E9,6.857694E8,2.1899602E9,6.9217894E9,7.5934925E8,0E0,1.124819E9,9.215181E8,0E0,2.4399872E8,2.7600486E8,1.3807616E8,0E0,5.44129E8,1.3609329E9,0E0,1.0826547E8,1.1603159E9,7.757404E8,1.5108064E8,4.8167587E8,2.0415565E8,4.466688E8,1.4589245E9,1.2177244E9,1.9896525E9,1.2394906E8,0E0,0E0,0E0,0E0,0E0,0E0,0E0,0E0,0E0,0E0,0E0,0E0,0E0,0E0,0E0,0E0,0E0,0E0,0E0,0E0,0E0,0E0,0E0,0E0,0E0,0E0,0E0,0E0,0E0,0E0,0E0,0E0,0E0,0E0,0E0,0E0],"parents":[2147483647,0,0,1,1,2,2,3,3,4,4,5,5,6,6,7,7,8,8,9,9,10,10,11,11,12,12,13,13,15,15,16,16,17,17,18,18,19,19,20,20,21,21,22,22,24,24,25,25,27,27,28,28,29,29,31,31,32,32,34,34,35,35,36,36,37,37,38,38,39,39,40,40,41,41,42,42,43,43,44,44],"right_children":[2,4,6,8,10,12,14,16,18,20,22,24,26,28,-1,30,32,34,36,38,40,42,44,-1,46,48,-1,50,52,54,-1,56,58,-1,60,62,64,66,68,70,72,74,76,78,80,-1,-1,-1,-1,-1,-1,-1,-1,-1,-1,-1,-1,-1,-1,-1,-1,-1,-1,-1,-1,-1,-1,-1,-1,-1,-1,-1,-1,-1,-1,-1,-1,-1,-1,-1,-1],"split_conditions":[1E0,1.3290802E2,9.571327E2,6.941552E1,2.2451355E2,7.4912604E2,6.967E1,7.425E1,7.573E1,1.1269E2,3.8865546E2,5.776494E2,8.164E1,1.1956522E3,2.547813E3,1E0,3.842459E1,1.014E1,1.4322E2,1.6142816E2,1.6527788E2,9.371E1,7.52E1,1.1079457E3,8.45E1,6.508E1,2.1200474E3,5.828E1,5.352E1,5.4054054E1,-5.658465E2,1.3616558E1,1.3065E2,-5.537243E2,1.01146324E2,1E0,8.982036E1,9.417E1,8.018E1,1.413E2,1.3459E2,2.8006723E2,2.8006723E2,5.3337396E2,4.7826086E2,1.1824603E3,1.5424377E3,1.1641254E3,1.5708901E3,1.4206293E3,1.8273245E3,2.000829E3,2.4935437E3,-5.188531E2,-4.4573972E2,-5.474796E2,-4.660897E2,-3.9812186E2,-2.6935513E2,-4.0359866E2,-2.7786542E2,-1.4773528E2,-2.6938086E2,-9.450967E1,4.5116615E1,-1.7133684E2,-5.566244E1,-1.2321496E2,7.437511E1,7.440969E1,1.859904E2,2.6307138E2,4.2249765E2,7.848323E1,3.4159604E2,5.1364087E2,6.917601E2,3.9409283E2,7.6792163E2,7.533017E2,9.250112E2],"split_indices":[37,8,8,8,8,8,0,0,0,0,8,8,0,8,0,10,8,0,0,8,8,0,0,0,0,0,0,0,0,8,0,8,0,0,8,11,8,0,0,0,0,8,8,8,8,0,0,0,0,0,0,0,0,0,0,0,0,0,0,0,0,0,0,0,0,0,0,0,0,0,0,0,0,0,0,0,0,0,0,0,0],"split_type":[0,0,0,0,0,0,0,0,0,0,0,0,0,0,0,0,0,0,0,0,0,0,0,0,0,0,0,0,0,0,0,0,0,0,0,0,0,0,0,0,0,0,0,0,0,0,0,0,0,0,0,0,0,0,0,0,0,0,0,0,0,0,0,0,0,0,0,0,0,0,0,0,0,0,0,0,0,0,0,0,0],"sum_hessian":[8E3,7.196E3,8.04E2,5.466E3,1.73E3,3.96E2,4.08E2,3.779E3,1.687E3,7.2E2,1.01E3,1.9E2,2.06E2,2.35E2,1.73E2,1.668E3,2.111E3,4.65E2,1.222E3,3.38E2,3.82E2,6.88E2,3.22E2,4.5E1,1.45E2,1.16E2,9E1,8.5E1,1.5E2,5.45E2,1.123E3,1.138E3,9.73E2,2.5E2,2.15E2,8.01E2,4.21E2,1.16E2,2.22E2,1.87E2,1.95E2,2.57E2,4.31E2,1.63E2,1.59E2,6.6E1,7.9E1,3.9E1,7.7E1,3.3E1,5.2E1,3.3E1,1.17E2,3.91E2,1.54E2,3.47E2,7.91E2,6.6E2,3.13E2,1.85E2,3E1,4.4E2,3.61E2,1.59E2,2.62E2,5.1E1,6.5E1,3.6E1,1.86E2,1.25E2,6.2E1,8.8E1,1.07E2,7.5E1,1.82E2,2.38E2,1.93E2,6E1,1.03E2,1.15E2,4.4E1],"tree_param":{"num_deleted":"0","num_feature":"38","num_nodes":"81","size_leaf_vector":"1"}},{"base_weights":[1.9278078E1,-4.116324E3,3.699308E4,-7.7046333E3,6.956415E3,2.746753E4,4.2687848E4,-9.128356E3,-4.4521426E3,2.186276E3,1.049765E4,1.1675717E3,2.9883037E4,3.8263805E4,4.5949035E4,-1.0326893E4,-8.150098E3,-8.406191E3,-2.326243E3,-1.12122E2,4.4849717E3,8.976714E3,1.37095E4,2.5596438E4,1.7865E3,3.0833412E4,2.3242305E3,4.255017E4,2.5088008E3,-9.4743E3,-5.375793E2,-9.267931E3,-6.681117E3,-5.261484E2,-6.765713E3,-3.628205E3,-1.24609245E2,-1.9280712E3,9.687259E2,2.1854836E3,6.898173E3,5.571471E3,1.1682804E4,1.0796646E4,1.463985E4,1.102635E3,1.4257782E3,1.2199446E3,1.685055E3,1.8121965E3,2.3992437E3,-5.0350583E2,-4.3924258E2,-4.9213882E2,-4.146882E2,-3.741059E2,-2.5482451E2,-3.6836212E2,-2.447053E2,-2.22908E2,-9.4006294E1,-8.726617E1,4.497521E1,-1.6291493E2,-4.3652203E1,-7.224627E1,9.254692E1,8.189786E1,1.9557414E2,2.892025E2,4.439684E2,1.5657906E2,4.035707E2,5.261814E2,7.0237683E2,3.6662775E2,7.9900745E2,6.625593E2,8.192609E2],"categories":[],"categories_nodes":[],"categories_segments":[],"categories_sizes":[],"default_left":[0,0,0,0,0,0,0,0,0,0,0,0,0,0,0,0,0,0,0,0,0,0,0,0,0,0,0,0,0,0,0,0,0,0,0,0,0,0,0,0,0,0,0,0,0,0,0,0,0,0,0,0,0,0,0,0,0,0,0,0,0,0,0,0,0,0,0,0,0,0,0,0,0,0,0,0,0,0,0],"id":8,"left_children":[1,3,5,7,9,11,13,15,17,19,21,-1,23,25,27,29,31,33,35,37,39,41,43,45,-1,47,-1,49,-1,51,-1,53,55,-1,57,59,61,63,65,67,69,71,73,75,77,-1,-1,-1,-1,-1,-1,-1,-1,-1,-1,-1,-1,-1,-1,-1,-1,-1,-1,-1,-1,-1,-1,-1,-1,-1,-1,-1,-1,-1,-1,-1,-1,-1,-1],"loss_changes":[1.2235765E12,2.860078E11,4.2495377E10,2.5131516E10,2.9741072E10,2.3246766E9,5.484577E9,4.347822E9,1.3909037E10,3.973558E9,4.815692E9,0E0,3.7974016E9,1.19441E10,1.945174E9,5.1186893E8,3.3634386E9,1.9394028E9,3.092441E9,7.418301E8,2.0713948E9,6.2839644E9,7.1725875E8,5.2975206E8,0E0,1.3550879E9,0E0,3.8815334E9,0E0,1.4650573E8,0E0,5.802721E8,1.110573E9,0E0,3.343401E8,9.752791E8,6.6880755E8,1.9503843E8,5.0733126E8,1.7692909E8,3.525765E8,1.847297E9,9.020293E8,1.3552271E9,3.6941824E8,0E0,0E0,0E0,0E0,0E0,0E0,0E0,0E0,0E0,0E0,0E0,0E0,0E0,0E0,0E0,0E0,0E0,0E0,0E0,0E0,0E0,0E0,0E0,0E0,0E0,0E0,0E0,0E0,0E0,0E0,0E0,0E0,0E0,0E0],"parents":[2147483647,0,0,1,1,2,2,3,3,4,4,5,5,6,6,7,7,8,8,9,9,10,10,12,12,13,13,14,14,15,15,16,16,17,17,18,18,19,19,20,20,21,21,22,22,23,23,25,25,27,27,29,29,31,31,32,32,34,34,35,35,36,36,37,37,38,38,39,39,40,40,41,41,42,42,43,43,44,44],"right_children":[2,4,6,8,10,12,14,16,18,20,22,-1,24,26,28,30,32,34,36,38,40,42,44,46,-1,48,-1,50,-1,52,-1,54,56,-1,58,60,62,64,66,68,70,72,74,76,78,-1,-1,-1,-1,-1,-1,-1,-1,-1,-1,-1,-1,-1,-1,-1,-1,-1,-1,-1,-1,-1,-1,-1,-1,-1,-1,-1,-1,-1,-1,-1,-1,-1,-1],"split_conditions":[1E0,1.3058484E2,8.660726E2,6.941552E1,2.2451355E2,6.747349E2,1.0838625E3,7.52E1,8.67E1,1.1554E2,3.8865546E2,1.1675717E3,8.531E1,8.018E1,6.55E1,1E0,3.992813E1,1.014E1,1.4522E2,1.6142816E2,1.6527788E2,9.841E1,6.104E1,7.284E1,1.7865E3,6.158E1,2.3242305E3,1.3937283E3,2.5088008E3,3.992813E1,-5.375793E2,2.5862068E1,1.3065E2,-5.261484E2,1.01146324E2,1.0385757E2,8.982036E1,9.53E1,8.567E1,1.4522E2,1.4522E2,3.1435855E2,2.9356506E2,6.44581E2,4.7826086E2,1.102635E3,1.4257782E3,1.2199446E3,1.685055E3,1.8121965E3,2.3992437E3,-5.0350583E2,-4.3924258E2,-4.9213882E2,-4.146882E2,-3.741059E2,-2.5482451E2,-3.6836212E2,-2.447053E2,-2.22908E2,-9.4006294E1,-8.726617E1,4.497521E1,-1.6291493E2,-4.3652203E1,-7.224627E1,9.254692E1,8.189786E1,1.9557414E2,2.892025E2,4.439684E2,1.5657906E2,4.035707E2,5.261814E2,7.0237683E2,3.6662775E2,7.9900745E2,6.625593E2,8.192609E2],"split_indices":[37,8,8,8,8,8,8,0,0,0,8,0,0,0,0,10,8,0,0,8,8,0,0,0,0,0,0,8,0,8,0,8,0,0,8,8,8,0,0,0,0,8,8,8,8,0,0,0,0,0,0,0,0,0,0,0,0,0,0,0,0,0,0,0,0,0,0,0,0,0,0,0,0,0,0,0,0,0,0],"split_type":[0,0,0,0,0,0,0,0,0,0,0,0,0,0,0,0,0,0,0,0,0,0,0,0,0,0,0,0,0,0,0,0,0,0,0,0,0,0,0,0,0,0,0,0,0,0,0,0,0,0,0,0,0,0,0,0,0,0,0,0,0,0,0,0,0,0,0,0,0,0,0,0,0,0,0,0,0,0,0],"sum_hessian":[8E3,7.196E3,8.04E2,5.435E3,1.761E3,3.03E2,5.01E2,3.779E3,1.656E3,7.51E2,1.01E3,1.16E2,1.87E2,2.18E2,2.83E2,1.694E3,2.085E3,5.78E2,1.078E3,3.76E2,3.75E2,6.88E2,3.22E2,1.11E2,7.6E1,1.17E2,1.01E2,1.63E2,1.2E2,5.71E2,1.123E3,1.181E3,9.04E2,2.5E2,3.28E2,6.77E2,4.01E2,1.4E2,2.36E2,1.93E2,1.82E2,3.06E2,3.82E2,8.1E1,2.41E2,5.4E1,5.7E1,3.9E1,7.8E1,7.9E1,8.4E1,2.99E2,2.72E2,7.37E2,4.44E2,5.98E2,3.06E2,2.46E2,8.2E1,4.58E2,2.19E2,1.55E2,2.46E2,6.1E1,7.9E1,6.3E1,1.73E2,1.48E2,4.5E1,1.19E2,6.3E1,1.56E2,1.5E2,2.6E2,1.22E2,5E1,3.1E1,1.39E2,1.02E2],"tree_param":{"num_deleted":"0","num_feature":"38","num_nodes":"79","size_leaf_vector":"1"}},{"base_weights":[2.0586103E1,-3.9104043E3,3.516508E4,-7.1206997E3,7.2700957E3,2.800303E4,4.203102E4,-8.408866E3,-3.1677058E3,3.624865E3,1.0733754E4,2.4413467E4,3.2151822E4,3.7826867E4,4.507545E4,-9.284205E3,-6.685477E3,-6.4086055E3,-8.540204E2,9.360795E2,6.8714927E3,9.435563E3,1.349294E4,1.0660072E3,2.6243863E4,2.4958914E4,3.760206E4,1.4653751E3,4.4178895E4,4.2615613E4,2.441408E3,-5.0992154E2,-8.570148E3,-8.129417E3,-4.520502E3,-9.229423E3,-4.6244434E3,-2.316361E3,2.1161807E2,-1.36146E3,1.6919457E3,4.0351396E3,9.637767E3,5.223719E3,1.1385294E4,1.1694803E4,1.4829181E4,1.0689872E3,1.4668617E3,9.8639154E2,1.3230498E3,1.6637982E3,2.0674578E3,1.8910918E3,2.3581887E3,1.8725555E3,2.4232341E3,-4.828176E2,-3.98483E2,-4.5816382E2,-3.5981442E2,-2.5504285E2,-1.292727E2,-4.994189E2,-3.647844E2,-2.8459225E2,-2.0286475E2,-1.6493759E2,1.396091E1,-4.67712E1,6.29536E1,-1.25826904E2,-1.3228789E1,2.2005545E1,1.6880061E2,1.4007268E2,2.715123E2,3.8418503E2,5.701058E2,9.697865E1,3.5540268E2,5.049675E2,6.62014E2,4.4175162E2,8.086816E2,6.4383673E2,7.9176086E2],"categories":[],"categories_nodes":[],"categories_segments":[],"categories_sizes":[],"default_left":[0,0,0,0,0,0,0,0,0,0,0,0,0,0,0,0,0,0,0,0,0,0,0,0,0,0,0,0,0,0,0,0,0,0,0,0,0,0,0,0,0,0,0,0,0,0,0,0,0,0,0,0,0,0,0,0,0,0,0,0,0,0,0,0,0,0,0,0,0,0,0,0,0,0,0,0,0,0,0,0,0,0,0,0,0,0,0],"id":9,"left_children":[1,3,5,7,9,11,13,15,17,19,21,23,25,27,29,31,33,35,37,39,41,43,45,-1,47,49,51,-1,53,55,-1,-1,57,59,61,63,65,67,69,71,73,75,77,79,81,83,85,-1,-1,-1,-1,-1,-1,-1,-1,-1,-1,-1,-1,-1,-1,-1,-1,-1,-1,-1,-1,-1,-1,-1,-1,-1,-1,-1,-1,-1,-1,-1,-1,-1,-1,-1,-1,-1,-1,-1,-1],"loss_changes":[1.1054969E12,2.5837162E11,3.8408225E10,2.844849E10,2.023818E10,5.12734E9,3.5299E9,6.2994514E9,1.0312354E10,6.8374835E9,2.8206285E9,6.6913894E8,6.1572547E9,8.3377357E9,6.075187E7,1.7365402E9,4.414808E9,2.8411126E9,1.2533846E9,7.490556E8,2.7464847E9,4.5638615E9,4.5368934E8,0E0,1.3589217E9,1.1444224E8,2.6130842E8,0E0,1.1368858E8,2.6556662E9,0E0,0E0,9.503457E8,7.569654E8,6.291763E8,2.5147187E8,1.9060378E8,8.65328E8,5.610645E8,1.349018E8,6.8156224E8,2.8942643E8,5.295196E8,1.1001308E9,7.8227866E8,1.3428828E9,8.287437E7,0E0,0E0,0E0,0E0,0E0,0E0,0E0,0E0,0E0,0E0,0E0,0E0,0E0,0E0,0E0,0E0,0E0,0E0,0E0,0E0,0E0,0E0,0E0,0E0,0E0,0E0,0E0,0E0,0E0,0E0,0E0,0E0,0E0,0E0,0E0,0E0,0E0,0E0,0E0,0E0],"parents":[2147483647,0,0,1,1,2,2,3,3,4,4,5,5,6,6,7,7,8,8,9,9,10,10,11,11,12,12,13,13,14,14,15,15,16,16,17,17,18,18,19,19,20,20,21,21,22,22,24,24,25,25,26,26,28,28,29,29,32,32,33,33,34,34,35,35,36,36,37,37,38,38,39,39,40,40,41,41,42,42,43,43,44,44,45,45,46,46],"right_children":[2,4,6,8,10,12,14,16,18,20,22,24,26,28,30,32,34,36,38,40,42,44,46,-1,48,50,52,-1,54,56,-1,-1,58,60,62,64,66,68,70,72,74,76,78,80,82,84,86,-1,-1,-1,-1,-1,-1,-1,-1,-1,-1,-1,-1,-1,-1,-1,-1,-1,-1,-1,-1,-1,-1,-1,-1,-1,-1,-1,-1,-1,-1,-1,-1,-1,-1,-1,-1,-1,-1,-1,-1],"split_conditions":[1E0,1.4278516E2,9.571327E2,7.987221E1,2.560273E2,7.7763763E2,6.33E1,1.005E2,1.0515E2,1.1912E2,4.210141E2,8.45E1,7.474E1,1.3191489E3,8.128E1,5.01E1,4.99002E1,6.281E1,9.98004E1,8.567E1,1.95427E2,8.597E1,6.715E1,1.0660072E3,5.9679224E2,6.104E1,8.823E1,1.4653751E3,1.4811117E3,1.1956522E3,2.441408E3,-5.0992154E2,3.0254135E1,2.52738E1,1.6271E2,8.85E0,9.68651E1,1.6271E2,1.3852E2,7.726E1,1.95427E2,1.3924E2,1.3852E2,7.078E1,1.1403E2,6.44581E2,4.584766E2,1.0689872E3,1.4668617E3,9.8639154E2,1.3230498E3,1.6637982E3,2.0674578E3,1.8910918E3,2.3581887E3,1.8725555E3,2.4232341E3,-4.828176E2,-3.98483E2,-4.5816382E2,-3.5981442E2,-2.5504285E2,-1.292727E2,-4.994189E2,-3.647844E2,-2.8459225E2,-2.0286475E2,-1.6493759E2,1.396091E1,-4.67712E1,6.29536E1,-1.25826904E2,-1.3228789E1,2.2005545E1,1.6880061E2,1.4007268E2,2.715123E2,3.8418503E2,5.701058E2,9.697865E1,3.5540268E2,5.049675E2,6.62014E2,4.4175162E2,8.086816E2,6.4383673E2,7.9176086E2],"split_indices":[37,8,8,8,8,8,0,0,0,0,8,0,0,8,0,0,8,0,8,0,8,0,0,0,8,0,0,0,8,8,0,0,8,8,0,0,8,0,0,0,8,0,0,0,0,8,8,0,0,0,0,0,0,0,0,0,0,0,0,0,0,0,0,0,0,0,0,0,0,0,0,0,0,0,0,0,0,0,0,0,0,0,0,0,0,0,0],"split_type":[0,0,0,0,0,0,0,0,0,0,0,0,0,0,0,0,0,0,0,0,0,0,0,0,0,0,0,0,0,0,0,0,0,0,0,0,0,0,0,0,0,0,0,0,0,0,0,0,0,0,0,0,0,0,0,0,0,0,0,0,0,0,0,0,0,0,0,0,0,0,0,0,0,0,0,0,0,0,0,0,0,0,0,0,0,0,0],"sum_hessian":[8E3,7.196E3,8.04E2,5.591E3,1.605E3,3.96E2,4.08E2,4.216E3,1.375E3,7.83E2,8.22E2,2.16E2,1.8E2,1.77E2,2.31E2,2.793E3,1.423E3,5.72E2,8.03E2,4.29E2,3.54E2,5.62E2,2.6E2,8.5E1,1.31E2,8E1,1E2,7.8E1,9.9E1,1.47E2,8.4E1,1.219E3,1.574E3,8.52E2,5.71E2,2.2E2,3.52E2,3.38E2,4.65E2,1.06E2,3.23E2,1.76E2,1.78E2,1.79E2,3.83E2,1.15E2,1.45E2,5.4E1,7.7E1,2.1E1,5.9E1,5.1E1,4.9E1,3.6E1,6.3E1,8.2E1,6.5E1,5.55E2,1.019E3,4E2,4.52E2,4.38E2,1.33E2,1.55E2,6.5E1,1.19E2,2.33E2,2.45E2,9.3E1,2.22E2,2.43E2,5.1E1,5.5E1,1.86E2,1.37E2,9.5E1,8.1E1,8.7E1,9.1E1,6.6E1,1.13E2,2.3E2,1.53E2,7.2E1,4.3E1,5.4E1,9.1E1],"tree_param":{"num_deleted":"0","num_feature":"38","num_nodes":"87","size_leaf_vector":"1"}},{"base_weights":[2.2523777E1,-3.7146555E3,3.3434273E4,-6.687937E3,7.1936416E3,2.4791027E4,3.8601824E4,-7.989038E3,-2.8730544E3,3.744589E3,1.0202298E4,2.1039639E4,2.69938E4,3.6064082E4,4.3476562E4,-8.820493E3,-6.3520474E3,-6.237669E3,-8.712061E2,1.4594056E3,7.4371245E3,9.073942E3,1.3089501E4,8.8901184E2,2.2108447E4,2.3109623E4,1.6146473E3,2.915664E4,4.217791E4,1.9451787E3,2.3004656E3,-4.8444635E2,-8.1422007E3,-7.7649624E3,-4.3532134E3,-8.771862E3,-4.4512515E3,-2.3899802E3,1.8078946E2,-9.696272E0,3.037881E3,4.807644E3,9.866091E3,3.0186506E3,1.0276473E4,1.1262764E4,7.286098E2,9.1592773E2,1.1886846E3,9.916125E2,1.2909517E3,1.154987E3,3.1237016E4,3.398548E4,2.1915405E3,-4.4193527E2,-3.6416925E2,-4.4781955E2,-3.5189844E2,-2.4498648E2,-1.26843544E2,-4.7460806E2,-3.468215E2,-2.5117314E2,-1.7350043E2,-1.6412291E2,1.3270289E1,-6.668545E1,4.8597275E1,-1.1438082E2,2.9848825E1,7.844567E1,2.3557524E2,1.9064392E2,3.175907E2,3.9256808E2,5.6222675E2,2.3736681E1,2.3533415E2,4.5085278E2,6.1117926E2,4.484431E2,8.06744E2,1.383797E3,1.7310917E3,1.367889E3,1.950195E3],"categories":[],"categories_nodes":[],"categories_segments":[],"categories_sizes":[],"default_left":[0,0,0,0,0,0,0,0,0,0,0,0,0,0,0,0,0,0,0,0,0,0,0,0,0,0,0,0,0,0,0,0,0,0,0,0,0,0,0,0,0,0,0,0,0,0,0,0,0,0,0,0,0,0,0,0,0,0,0,0,0,0,0,0,0,0,0,0,0,0,0,0,0,0,0,0,0,0,0,0,0,0,0,0,0,0,0],"id":10,"left_children":[1,3,5,7,9,11,13,15,17,19,21,23,25,27,29,31,33,35,37,39,41,43,45,-1,47,49,-1,51,53,-1,-1,-1,55,57,59,61,63,65,67,69,71,73,75,77,79,81,-1,-1,-1,-1,-1,-1,83,85,-1,-1,-1,-1,-1,-1,-1,-1,-1,-1,-1,-1,-1,-1,-1,-1,-1,-1,-1,-1,-1,-1,-1,-1,-1,-1,-1,-1,-1,-1,-1,-1,-1],"loss_changes":[9.9917464E11,2.3347154E11,3.4997928E10,2.8050883E10,1.5963152E10,1.9441418E9,4.6422426E9,5.6836424E9,9.693609E9,6.064593E9,2.562392E9,1.4491648E7,3.12329E9,1.295981E10,1.442775E8,1.5669494E9,3.9878328E9,2.392023E9,1.4447923E9,1.0342773E9,1.70897E9,4.301578E9,4.5611827E8,0E0,9.462989E7,4.8248422E8,0E0,1.3071401E9,8.936489E8,0E0,0E0,0E0,8.7773184E8,6.5847706E8,5.7522586E8,2.263337E8,1.6055706E8,8.777243E8,6.423357E8,3.2197853E8,5.211854E8,1.8161715E8,3.0607667E8,4.27187E8,1.1060797E9,1.051137E9,0E0,0E0,0E0,0E0,0E0,0E0,4.520837E8,6.37952E7,0E0,0E0,0E0,0E0,0E0,0E0,0E0,0E0,0E0,0E0,0E0,0E0,0E0,0E0,0E0,0E0,0E0,0E0,0E0,0E0,0E0,0E0,0E0,0E0,0E0,0E0,0E0,0E0,0E0,0E0,0E0,0E0,0E0],"parents":[2147483647,0,0,1,1,2,2,3,3,4,4,5,5,6,6,7,7,8,8,9,9,10,10,11,11,12,12,13,13,14,14,15,15,16,16,17,17,18,18,19,19,20,20,21,21,22,22,24,24,25,25,27,27,28,28,32,32,33,33,34,34,35,35,36,36,37,37,38,38,39,39,40,40,41,41,42,42,43,43,44,44,45,45,52,52,53,53],"right_children":[2,4,6,8,10,12,14,16,18,20,22,24,26,28,30,32,34,36,38,40,42,44,46,-1,48,50,-1,52,54,-1,-1,-1,56,58,60,62,64,66,68,70,72,74,76,78,80,82,-1,-1,-1,-1,-1,-1,84,86,-1,-1,-1,-1,-1,-1,-1,-1,-1,-1,-1,-1,-1,-1,-1,-1,-1,-1,-1,-1,-1,-1,-1,-1,-1,-1,-1,-1,-1,-1,-1,-1,-1],"split_conditions":[1E0,1.4983768E2,8.660726E2,7.987221E1,2.560273E2,6.747349E2,7.573E1,1.005E2,1.005E2,1.2455E2,4.3816943E2,8.392E1,8.531E1,1.1956522E3,9.841575E2,5.01E1,4.8685493E1,6.281E1,9.98004E1,1.0146E2,1.9930244E2,7.839E1,6.663E1,8.8901184E2,5.510132E2,7.284E1,1.6146473E3,5.828E1,5.352E1,1.9451787E3,2.3004656E3,-4.8444635E2,4.267122E1,2.008032E1,1.6271E2,8.85E0,1.16315956E2,1.6271E2,1.2639E2,7.726E1,1.9070164E2,1.4626E2,1.3852E2,6.281E1,1.0634E2,6.747349E2,7.286098E2,9.1592773E2,1.1886846E3,9.916125E2,1.2909517E3,1.154987E3,1.0443865E3,1.4811117E3,2.1915405E3,-4.4193527E2,-3.6416925E2,-4.4781955E2,-3.5189844E2,-2.4498648E2,-1.26843544E2,-4.7460806E2,-3.468215E2,-2.5117314E2,-1.7350043E2,-1.6412291E2,1.3270289E1,-6.668545E1,4.8597275E1,-1.1438082E2,2.9848825E1,7.844567E1,2.3557524E2,1.9064392E2,3.175907E2,3.9256808E2,5.6222675E2,2.3736681E1,2.3533415E2,4.5085278E2,6.1117926E2,4.484431E2,8.06744E2,1.383797E3,1.7310917E3,1.367889E3,1.950195E3],"split_indices":[37,8,8,8,8,8,0,0,0,0,8,0,0,8,8,0,8,0,8,0,8,0,0,0,8,0,0,0,0,0,0,0,8,8,0,0,8,0,0,0,8,0,0,0,0,8,0,0,0,0,0,0,8,8,0,0,0,0,0,0,0,0,0,0,0,0,0,0,0,0,0,0,0,0,0,0,0,0,0,0,0,0,0,0,0,0,0],"split_type":[0,0,0,0,0,0,0,0,0,0,0,0,0,0,0,0,0,0,0,0,0,0,0,0,0,0,0,0,0,0,0,0,0,0,0,0,0,0,0,0,0,0,0,0,0,0,0,0,0,0,0,0,0,0,0,0,0,0,0,0,0,0,0,0,0,0,0,0,0,0,0,0,0,0,0,0,0,0,0,0,0,0,0,0,0,0,0],"sum_hessian":[8E3,7.196E3,8.04E2,5.655E3,1.541E3,3.03E2,5.01E2,4.216E3,1.439E3,7.19E2,8.22E2,1.16E2,1.87E2,3.35E2,1.66E2,2.793E3,1.423E3,5.36E2,9.03E2,4.45E2,2.74E2,5.94E2,2.28E2,3.3E1,8.3E1,1.11E2,7.6E1,1.6E2,1.75E2,6.5E1,1.01E2,1.219E3,1.574E3,8.32E2,5.91E2,2.2E2,3.16E2,3.69E2,5.34E2,2.31E2,2.14E2,1.33E2,1.41E2,9.9E1,4.95E2,1.06E2,1.22E2,2.9E1,5.4E1,5.4E1,5.7E1,4.4E1,1.16E2,3.3E1,1.42E2,8.64E2,7.1E2,3.11E2,5.21E2,4.53E2,1.38E2,1.55E2,6.5E1,1.97E2,1.19E2,2.76E2,9.3E1,1.83E2,3.51E2,4.8E1,1.83E2,1.15E2,9.9E1,8.3E1,5E1,6E1,8.1E1,4E1,5.9E1,3.04E2,1.91E2,7.4E1,3.2E1,6.1E1,5.5E1,1.7E1,1.6E1],"tree_param":{"num_deleted":"0","num_feature":"38","num_nodes":"87","size_leaf_vector":"1"}},{"base_weights":[2.415169E1,-3.5287673E3,3.1788541E4,-6.61096E3,5.982203E3,2.2846225E4,3.630911E4,-7.9037563E3,-3.9556404E3,1.8780465E3,9.029031E3,2.058809E4,2.5355152E4,3.2464393E4,3.9565695E4,-8.908216E3,-7.0899307E3,-7.8035894E3,-2.3248591E3,-2.6024792E2,3.740393E3,7.355429E3,1.1395373E4,8.2677997E2,2.1512594E4,2.0309133E4,1.4779137E3,2.537042E4,3.8514203E4,3.5940086E4,2.132725E3,-8.24681E3,-4.614316E2,-8.332032E3,-6.2016733E3,-4.5074948E2,-6.379131E3,-3.5643489E3,-4.3226648E2,-1.7719688E3,7.392859E2,2.0519E3,6.0800093E3,3.990825E3,1.0606549E4,9.407499E3,1.2970699E4,9.0659326E2,1.1785892E3,7.7240533E2,1.0726373E3,1.0296655E3,1.3869719E3,1.7558096E3,2.1644558E3,1.5079579E3,2.1223352E3,-4.5431558E2,-3.9511963E2,-4.498811E2,-3.932318E2,-3.3767685E2,-2.3119945E2,-3.2982126E2,-2.3261465E2,-2.1649068E2,-1.2695286E2,-8.4615486E1,2.7116507E1,-1.3546494E2,-3.551309E1,-8.313297E1,7.074506E1,6.726046E1,1.7021489E2,2.4952505E2,3.9546518E2,-6.5581474E1,2.3331377E2,4.6720978E2,6.0195135E2,2.6604617E2,6.328516E2,6.167729E2,7.654064E2],"categories":[],"categories_nodes":[],"categories_segments":[],"categories_sizes":[],"default_left":[0,0,0,0,0,0,0,0,0,0,0,0,0,0,0,0,0,0,0,0,0,0,0,0,0,0,0,0,0,0,0,0,0,0,0,0,0,0,0,0,0,0,0,0,0,0,0,0,0,0,0,0,0,0,0,0,0,0,0,0,0,0,0,0,0,0,0,0,0,0,0,0,0,0,0,0,0,0,0,0,0,0,0,0,0],"id":11,"left_children":[1,3,5,7,9,11,13,15,17,19,21,23,25,27,29,31,33,35,37,39,41,43,45,-1,47,49,-1,51,53,55,-1,57,-1,59,61,-1,63,65,67,69,71,73,75,77,79,81,83,-1,-1,-1,-1,-1,-1,-1,-1,-1,-1,-1,-1,-1,-1,-1,-1,-1,-1,-1,-1,-1,-1,-1,-1,-1,-1,-1,-1,-1,-1,-1,-1,-1,-1,-1,-1,-1,-1],"loss_changes":[9.0307546E11,2.1101706E11,3.1712084E10,1.8629362E10,2.201625E10,1.02465536E9,5.3890253E9,2.9246587E9,1.1164197E10,2.9956216E9,3.9200686E9,2.0251034E8,2.0508262E9,9.752199E9,1.647444E9,2.6976256E8,2.1814067E9,8.570552E8,2.9378084E9,5.3167667E8,1.5755965E9,6.466218E9,1.18383E9,0E0,3.9406387E8,2.146304E6,0E0,7.6416614E8,6.3779635E8,3.8730138E9,0E0,8.491008E7,0E0,1.908695E8,9.996452E8,0E0,6.1993984E7,5.831178E8,6.1125056E8,1.3739949E8,3.4638422E8,2.2001632E8,2.9535795E8,1.05909504E9,4.3360666E8,2.4291932E9,1.526784E8,0E0,0E0,0E0,0E0,0E0,0E0,0E0,0E0,0E0,0E0,0E0,0E0,0E0,0E0,0E0,0E0,0E0,0E0,0E0,0E0,0E0,0E0,0E0,0E0,0E0,0E0,0E0,0E0,0E0,0E0,0E0,0E0,0E0,0E0,0E0,0E0,0E0,0E0],"parents":[2147483647,0,0,1,1,2,2,3,3,4,4,5,5,6,6,7,7,8,8,9,9,10,10,11,11,12,12,13,13,14,14,15,15,16,16,17,17,18,18,19,19,20,20,21,21,22,22,24,24,25,25,27,27,28,28,29,29,31,31,33,33,34,34,36,36,37,37,38,38,39,39,40,40,41,41,42,42,43,43,44,44,45,45,46,46],"right_children":[2,4,6,8,10,12,14,16,18,20,22,24,26,28,30,32,34,36,38,40,42,44,46,-1,48,50,-1,52,54,56,-1,58,-1,60,62,-1,64,66,68,70,72,74,76,78,80,82,84,-1,-1,-1,-1,-1,-1,-1,-1,-1,-1,-1,-1,-1,-1,-1,-1,-1,-1,-1,-1,-1,-1,-1,-1,-1,-1,-1,-1,-1,-1,-1,-1,-1,-1,-1,-1,-1,-1],"split_conditions":[1E0,1.3058484E2,8.328463E2,6.665051E1,2.2451355E2,8.774E1,1.0838625E3,7.52E1,7.635E1,1.1269E2,3.5738434E2,6.44581E2,6.189651E2,7.691E1,6.158E1,1E0,3.0254135E1,1.057E1,1.3732E2,1.6527788E2,1.7285435E2,1.0634E2,7.52E1,8.2677997E2,7.284E1,5.3337396E2,1.4779137E3,6.158E1,9.003E1,1.4811117E3,2.132725E3,2.008032E1,-4.614316E2,1.3616558E1,1.352E2,-4.5074948E2,1.01146324E2,9.68651E1,9.188361E1,9.759E1,8.323E1,1.4235E2,1.4322E2,6.663E1,1.2828E2,5.3337396E2,4.7826086E2,9.0659326E2,1.1785892E3,7.7240533E2,1.0726373E3,1.0296655E3,1.3869719E3,1.7558096E3,2.1644558E3,1.5079579E3,2.1223352E3,-4.5431558E2,-3.9511963E2,-4.498811E2,-3.932318E2,-3.3767685E2,-2.3119945E2,-3.2982126E2,-2.3261465E2,-2.1649068E2,-1.2695286E2,-8.4615486E1,2.7116507E1,-1.3546494E2,-3.551309E1,-8.313297E1,7.074506E1,6.726046E1,1.7021489E2,2.4952505E2,3.9546518E2,-6.5581474E1,2.3331377E2,4.6720978E2,6.0195135E2,2.6604617E2,6.328516E2,6.167729E2,7.654064E2],"split_indices":[37,8,8,8,8,0,8,0,0,0,8,8,8,0,0,10,8,0,0,8,8,0,0,0,0,8,0,0,0,8,0,8,0,8,0,0,8,8,8,0,0,0,0,0,0,8,8,0,0,0,0,0,0,0,0,0,0,0,0,0,0,0,0,0,0,0,0,0,0,0,0,0,0,0,0,0,0,0,0,0,0,0,0,0,0],"split_type":[0,0,0,0,0,0,0,0,0,0,0,0,0,0,0,0,0,0,0,0,0,0,0,0,0,0,0,0,0,0,0,0,0,0,0,0,0,0,0,0,0,0,0,0,0,0,0,0,0,0,0,0,0,0,0,0,0,0,0,0,0,0,0,0,0,0,0,0,0,0,0,0,0,0,0,0,0,0,0,0,0,0,0,0,0],"sum_hessian":[8E3,7.196E3,8.04E2,5.435E3,1.761E3,2.72E2,5.32E2,3.654E3,1.781E3,7.51E2,1.01E3,1.48E2,1.24E2,2.49E2,2.83E2,1.631E3,2.023E3,5.29E2,1.252E3,3.5E2,4.01E2,5.94E2,4.16E2,3.1E1,1.17E2,5.9E1,6.5E1,1.17E2,1.32E2,1.36E2,1.47E2,5.41E2,1.09E3,8.4E2,1.183E3,2.83E2,2.46E2,7.56E2,4.96E2,1.39E2,2.11E2,2.34E2,1.67E2,2.93E2,3.01E2,1.87E2,2.29E2,4.8E1,6.9E1,1.4E1,4.5E1,4.2E1,7.5E1,8.2E1,5E1,7.5E1,6.1E1,1.5E2,3.91E2,3.39E2,5.01E2,8.74E2,3.09E2,2.16E2,3E1,4.31E2,3.25E2,2.16E2,2.8E2,7.3E1,6.6E1,4.6E1,1.65E2,1.55E2,7.9E1,1.07E2,6E1,3.3E1,2.6E2,1.64E2,1.37E2,8.4E1,1.03E2,1.85E2,4.4E1],"tree_param":{"num_deleted":"0","num_feature":"38","num_nodes":"85","size_leaf_vector":"1"}},{"base_weights":[2.5245546E1,-3.3523179E3,3.022189E4,-6.3144014E3,5.5853916E3,2.3532885E4,3.571724E4,-7.5093135E3,-3.8179866E3,1.8317716E3,8.68667E3,2.0003145E4,2.6330916E4,3.3440605E4,2.0416024E3,-8.463608E3,-6.7361323E3,-6.970729E3,-2.0238816E3,5.328189E1,3.9988567E3,7.0886104E3,1.0831074E4,8.560594E2,2.1276896E4,2.073522E4,3.077158E4,2.704841E4,3.8153703E4,-7.8360366E3,-4.383812E2,-7.963498E3,-5.9240933E3,-4.282914E2,-5.663971E3,-3.0556753E3,-9.003185E1,-1.814704E3,8.587925E2,2.1965938E3,6.4108994E3,3.9120059E3,1.0217885E4,8.941905E3,1.2328173E4,8.671911E2,1.1624218E3,8.930586E2,1.1446415E3,1.3591425E3,1.6706488E3,1.0788828E3,1.4643529E3,3.063107E4,1.9837747E3,-4.3175024E2,-3.7541403E2,-4.2745322E2,-3.7586285E2,-3.212108E2,-2.2127986E2,-3.0218137E2,-2.0517955E2,-1.8253763E2,-7.984699E1,-7.125564E1,4.0305614E1,-1.2769226E2,-2.8899379E0,-2.0410862E1,1.12804665E2,8.437677E1,1.8411617E2,2.6452805E2,3.8734128E2,1.8022955E1,2.3952202E2,4.513269E2,5.809788E2,2.2346777E2,5.808908E2,5.8610004E2,7.279865E2,1.2320852E3,1.7585463E3],"categories":[],"categories_nodes":[],"categories_segments":[],"categories_sizes":[],"default_left":[0,0,0,0,0,0,0,0,0,0,0,0,0,0,0,0,0,0,0,0,0,0,0,0,0,0,0,0,0,0,0,0,0,0,0,0,0,0,0,0,0,0,0,0,0,0,0,0,0,0,0,0,0,0,0,0,0,0,0,0,0,0,0,0,0,0,0,0,0,0,0,0,0,0,0,0,0,0,0,0,0,0,0,0,0],"id":12,"left_children":[1,3,5,7,9,11,13,15,17,19,21,23,25,27,-1,29,31,33,35,37,39,41,43,-1,45,47,49,51,53,55,-1,57,59,-1,61,63,65,67,69,71,73,75,77,79,81,-1,-1,-1,-1,-1,-1,-1,-1,83,-1,-1,-1,-1,-1,-1,-1,-1,-1,-1,-1,-1,-1,-1,-1,-1,-1,-1,-1,-1,-1,-1,-1,-1,-1,-1,-1,-1,-1,-1,-1],"loss_changes":[8.161319E11,1.9057036E11,2.8749988E10,1.6097411E10,2.0844802E10,3.08804E9,3.758162E9,2.6398065E9,9.895819E9,3.1293476E9,3.284992E9,2.4508416E8,4.356522E9,8.307376E9,0E0,2.4266342E8,1.9700777E9,1.2750828E9,2.230508E9,6.7415155E8,1.5769697E9,5.5763927E9,1.0691502E9,0E0,4.5749453E8,1.6160358E8,1.344553E8,1.0214113E9,7.995228E8,7.709901E7,0E0,1.4556365E8,8.873738E8,0E0,1.8372608E8,6.26986E8,4.6775446E8,1.7516352E8,5.5505414E8,1.5337011E8,1.9249869E8,8.7805645E8,3.6936704E8,2.1980877E9,1.4045594E8,0E0,0E0,0E0,0E0,0E0,0E0,0E0,0E0,5.781709E7,0E0,0E0,0E0,0E0,0E0,0E0,0E0,0E0,0E0,0E0,0E0,0E0,0E0,0E0,0E0,0E0,0E0,0E0,0E0,0E0,0E0,0E0,0E0,0E0,0E0,0E0,0E0,0E0,0E0,0E0,0E0],"parents":[2147483647,0,0,1,1,2,2,3,3,4,4,5,5,6,6,7,7,8,8,9,9,10,10,11,11,12,12,13,13,15,15,16,16,17,17,18,18,19,19,20,20,21,21,22,22,24,24,25,25,26,26,27,27,28,28,29,29,31,31,32,32,34,34,35,35,36,36,37,37,38,38,39,39,40,40,41,41,42,42,43,43,44,44,53,53],"right_children":[2,4,6,8,10,12,14,16,18,20,22,24,26,28,-1,30,32,34,36,38,40,42,44,-1,46,48,50,52,54,56,-1,58,60,-1,62,64,66,68,70,72,74,76,78,80,82,-1,-1,-1,-1,-1,-1,-1,-1,84,-1,-1,-1,-1,-1,-1,-1,-1,-1,-1,-1,-1,-1,-1,-1,-1,-1,-1,-1,-1,-1,-1,-1,-1,-1,-1,-1,-1,-1,-1,-1],"split_conditions":[1E0,1.2814194E2,9.2674316E2,6.665051E1,2.2980959E2,7.2092053E2,7.573E1,7.52E1,8.67E1,1.1998E2,3.5738434E2,8.392E1,7.766E1,1.1956522E3,2.0416024E3,1E0,2.8675205E1,1.057E1,1.474E2,8.933E1,1.7285435E2,1.0634E2,7.52E1,8.560594E2,5.776494E2,6.715E1,8.861E1,5.901E1,5.352E1,2.008032E1,-4.383812E2,1.3616558E1,1.366E2,-4.282914E2,1.0385757E2,1.0385757E2,8.848514E1,1.9930244E2,1.7285435E2,1.474E2,1.4235E2,7.766E1,1.2828E2,5.040872E2,4.7826086E2,8.671911E2,1.1624218E3,8.930586E2,1.1446415E3,1.3591425E3,1.6706488E3,1.0788828E3,1.4643529E3,1.4811117E3,1.9837747E3,-4.3175024E2,-3.7541403E2,-4.2745322E2,-3.7586285E2,-3.212108E2,-2.2127986E2,-3.0218137E2,-2.0517955E2,-1.8253763E2,-7.984699E1,-7.125564E1,4.0305614E1,-1.2769226E2,-2.8899379E0,-2.0410862E1,1.12804665E2,8.437677E1,1.8411617E2,2.6452805E2,3.8734128E2,1.8022955E1,2.3952202E2,4.513269E2,5.809788E2,2.2346777E2,5.808908E2,5.8610004E2,7.279865E2,1.2320852E3,1.7585463E3],"split_indices":[37,8,8,8,8,8,0,0,0,0,8,0,0,8,0,10,8,0,0,0,8,0,0,0,8,0,0,0,0,8,0,8,0,0,8,8,8,8,8,0,0,0,0,8,8,0,0,0,0,0,0,0,0,8,0,0,0,0,0,0,0,0,0,0,0,0,0,0,0,0,0,0,0,0,0,0,0,0,0,0,0,0,0,0,0],"split_type":[0,0,0,0,0,0,0,0,0,0,0,0,0,0,0,0,0,0,0,0,0,0,0,0,0,0,0,0,0,0,0,0,0,0,0,0,0,0,0,0,0,0,0,0,0,0,0,0,0,0,0,0,0,0,0,0,0,0,0,0,0,0,0,0,0,0,0,0,0,0,0,0,0,0,0,0,0,0,0,0,0,0,0,0,0],"sum_hessian":[8E3,7.196E3,8.04E2,5.405E3,1.791E3,3.65E2,4.39E2,3.654E3,1.751E3,8.11E2,9.8E2,1.65E2,2E2,3.09E2,1.3E2,1.631E3,2.023E3,6.34E2,1.117E3,4.46E2,3.65E2,5.64E2,4.16E2,5.5E1,1.1E2,9.1E1,1.09E2,1.34E2,1.75E2,5.41E2,1.09E3,8.02E2,1.221E3,2.83E2,3.51E2,7.28E2,3.89E2,1.34E2,3.12E2,2.1E2,1.55E2,2.81E2,2.83E2,1.87E2,2.29E2,4E1,7E1,4.3E1,4.8E1,5.1E1,5.8E1,4.2E1,9.2E1,3.3E1,1.42E2,1.5E2,3.91E2,3.39E2,4.63E2,9.13E2,3.08E2,2.8E2,7.1E1,5.16E2,2.12E2,1.56E2,2.33E2,9.4E1,4E1,1.64E2,1.48E2,1.58E2,5.2E1,8.7E1,6.8E1,5.6E1,2.25E2,1.57E2,1.26E2,7.1E1,1.16E2,1.85E2,4.4E1,1.7E1,1.6E1],"tree_param":{"num_deleted":"0","num_feature":"38","num_nodes":"85","size_leaf_vector":"1"}},{"base_weights":[2.6230976E1,-3.1846365E3,2.873255E4,-5.73822E3,6.1838813E3,2.0621572E4,3.2833047E4,-6.805003E3,-2.3172415E3,3.1810266E3,8.803409E3,1.881646E4,2.333055E4,2.8878156E4,3.5478402E4,-7.508371E3,-5.2159653E3,-4.9815723E3,-4.4726544E2,1.1968907E3,6.3873667E3,7.541184E3,1.0733971E4,7.783329E2,1.9735799E4,1.850303E4,1.3691394E3,2.2608436E4,3.4997984E4,3.3136582E4,1.9770732E3,-4.1538794E2,-6.9366772E3,-6.3949873E3,-3.0971345E3,-7.5328286E3,-3.6328833E3,-1.5171348E3,4.754794E2,-9.4571434E1,2.5849016E3,4.329273E3,8.683122E3,3.8132776E3,9.344043E3,8.215669E3,1.1542924E4,8.158572E2,1.0791512E3,6.958908E2,9.9309094E2,9.2716595E2,1.2549574E3,1.5802423E3,1.9829174E3,2.7800453E4,1.8518514E3,-3.7432077E2,-2.973829E2,-3.6649753E2,-2.7707843E2,-1.8052669E2,-6.677044E1,-4.0632663E2,-2.9782306E2,-2.1011758E2,-1.3847627E2,-1.1595807E2,4.885467E1,-2.7817595E1,6.425698E1,-1.0451731E2,2.1871304E1,7.706367E1,2.1130391E2,1.69503E2,2.8763828E2,3.5011237E2,5.1404254E2,-2.0061045E1,2.3764024E2,3.9755112E2,5.4738776E2,2.2828838E2,5.791528E2,5.217075E2,6.468964E2,1.1389678E3,1.5197927E3],"categories":[],"categories_nodes":[],"categories_segments":[],"categories_sizes":[],"default_left":[0,0,0,0,0,0,0,0,0,0,0,0,0,0,0,0,0,0,0,0,0,0,0,0,0,0,0,0,0,0,0,0,0,0,0,0,0,0,0,0,0,0,0,0,0,0,0,0,0,0,0,0,0,0,0,0,0,0,0,0,0,0,0,0,0,0,0,0,0,0,0,0,0,0,0,0,0,0,0,0,0,0,0,0,0,0,0,0,0],"id":13,"left_children":[1,3,5,7,9,11,13,15,17,19,21,23,25,27,29,31,33,35,37,39,41,43,45,-1,47,49,-1,51,53,55,-1,-1,57,59,61,63,65,67,69,71,73,75,77,79,81,83,85,-1,-1,-1,-1,-1,-1,-1,-1,87,-1,-1,-1,-1,-1,-1,-1,-1,-1,-1,-1,-1,-1,-1,-1,-1,-1,-1,-1,-1,-1,-1,-1,-1,-1,-1,-1,-1,-1,-1,-1,-1,-1],"loss_changes":[7.3756115E11,1.7221142E11,2.60965E10,2.0625457E10,1.2101464E10,8.959672E8,4.5517373E9,4.7791636E9,6.7038597E9,4.5728625E9,1.9245425E9,1.9769754E8,1.5473787E9,7.6116787E9,1.6869622E9,1.3070008E9,3.2927375E9,1.8823066E9,7.825967E8,7.9972774E8,1.2617492E9,3.3315328E9,5.631795E8,0E0,4.5615104E8,4.1312256E7,0E0,6.584566E8,4.7025357E8,3.2578929E9,0E0,0E0,9.053225E8,6.3840666E8,4.2570547E8,1.303511E8,1.6781568E8,7.364266E8,3.5660934E8,2.4723973E8,3.617339E8,1.7703117E8,2.7445146E8,6.552466E8,6.6581504E8,9.5494605E8,2.3931494E8,0E0,0E0,0E0,0E0,0E0,0E0,0E0,0E0,4.9348608E8,0E0,0E0,0E0,0E0,0E0,0E0,0E0,0E0,0E0,0E0,0E0,0E0,0E0,0E0,0E0,0E0,0E0,0E0,0E0,0E0,0E0,0E0,0E0,0E0,0E0,0E0,0E0,0E0,0E0,0E0,0E0,0E0,0E0],"parents":[2147483647,0,0,1,1,2,2,3,3,4,4,5,5,6,6,7,7,8,8,9,9,10,10,11,11,12,12,13,13,14,14,15,15,16,16,17,17,18,18,19,19,20,20,21,21,22,22,24,24,25,25,27,27,28,28,29,29,32,32,33,33,34,34,35,35,36,36,37,37,38,38,39,39,40,40,41,41,42,42,43,43,44,44,45,45,46,46,55,55],"right_children":[2,4,6,8,10,12,14,16,18,20,22,24,26,28,30,32,34,36,38,40,42,44,46,-1,48,50,-1,52,54,56,-1,-1,58,60,62,64,66,68,70,72,74,76,78,80,82,84,86,-1,-1,-1,-1,-1,-1,-1,-1,88,-1,-1,-1,-1,-1,-1,-1,-1,-1,-1,-1,-1,-1,-1,-1,-1,-1,-1,-1,-1,-1,-1,-1,-1,-1,-1,-1,-1,-1,-1,-1,-1,-1],"split_conditions":[1E0,1.4983768E2,8.328463E2,8.240935E1,2.560273E2,9.003E1,1.0443865E3,1.0913E2,1.0571E2,1.2455E2,3.8865546E2,6.44581E2,6.189651E2,8.018E1,6.967E1,5.01E1,5.509642E1,6.104E1,1.0529482E2,1.0146E2,2.0391518E2,8.902E1,6.104E1,7.783329E2,7.284E1,5.3337396E2,1.3691394E3,6.45E1,9.068E1,1.3191489E3,1.9770732E3,-4.1538794E2,4.99002E1,2.7472527E1,1.6961E2,8.57E0,1.16315956E2,1.6728E2,1.3376E2,7.726E1,1.9930244E2,1.474E2,1.4235E2,6.281E1,1.1403E2,6.189651E2,4.7826086E2,8.158572E2,1.0791512E3,6.958908E2,9.9309094E2,9.2716595E2,1.2549574E3,1.5802423E3,1.9829174E3,5.828E1,1.8518514E3,-3.7432077E2,-2.973829E2,-3.6649753E2,-2.7707843E2,-1.8052669E2,-6.677044E1,-4.0632663E2,-2.9782306E2,-2.1011758E2,-1.3847627E2,-1.1595807E2,4.885467E1,-2.7817595E1,6.425698E1,-1.0451731E2,2.1871304E1,7.706367E1,2.1130391E2,1.69503E2,2.8763828E2,3.5011237E2,5.1404254E2,-2.0061045E1,2.3764024E2,3.9755112E2,5.4738776E2,2.2828838E2,5.791528E2,5.217075E2,6.468964E2,1.1389678E3,1.5197927E3],"split_indices":[37,8,8,8,8,0,8,0,0,0,8,8,8,0,0,0,8,0,8,0,8,0,0,0,0,8,0,0,0,8,0,0,8,8,0,0,8,0,0,0,8,0,0,0,0,8,8,0,0,0,0,0,0,0,0,0,0,0,0,0,0,0,0,0,0,0,0,0,0,0,0,0,0,0,0,0,0,0,0,0,0,0,0,0,0,0,0,0,0],"split_type":[0,0,0,0,0,0,0,0,0,0,0,0,0,0,0,0,0,0,0,0,0,0,0,0,0,0,0,0,0,0,0,0,0,0,0,0,0,0,0,0,0,0,0,0,0,0,0,0,0,0,0,0,0,0,0,0,0,0,0,0,0,0,0,0,0,0,0,0,0,0,0,0,0,0,0,0,0,0,0,0,0,0,0,0,0,0,0,0,0],"sum_hessian":[8E3,7.196E3,8.04E2,5.655E3,1.541E3,2.72E2,5.32E2,4.31E3,1.345E3,7.19E2,8.22E2,1.68E2,1.04E2,2.18E2,3.14E2,2.985E3,1.325E3,5.54E2,7.91E2,4.45E2,2.74E2,5E2,3.22E2,4.1E1,1.27E2,5E1,5.4E1,1.1E2,1.08E2,2.05E2,1.09E2,1.239E3,1.746E3,8.5E2,4.75E2,1.9E2,3.64E2,3.66E2,4.25E2,2.31E2,2.14E2,1.46E2,1.28E2,1.64E2,3.36E2,8.1E1,2.41E2,4.8E1,7.9E1,1.4E1,3.6E1,4.5E1,6.5E1,6.7E1,4.1E1,9E1,1.15E2,1.118E3,6.28E2,4.02E2,4.48E2,3.67E2,1.08E2,1.35E2,5.5E1,2.17E2,1.47E2,2.77E2,8.9E1,1.87E2,2.38E2,4.8E1,1.83E2,1.32E2,8.2E1,9E1,5.6E1,6.5E1,6.3E1,3E1,1.34E2,1.83E2,1.53E2,4E1,4.1E1,1.39E2,1.02E2,3.4E1,5.6E1],"tree_param":{"num_deleted":"0","num_feature":"38","num_nodes":"89","size_leaf_vector":"1"}},{"base_weights":[2.7364939E1,-3.0251821E3,2.7318238E4,-5.701279E3,5.0495967E3,2.0758213E4,3.1926074E4,-6.7811777E3,-3.4451526E3,1.5410402E3,7.7584404E3,1.7614203E4,2.2925123E4,3.0168498E4,1.8743193E3,-7.647095E3,-6.079617E3,-6.568554E3,-1.960675E3,-5.571837E2,2.9878882E3,6.1019434E3,9.571001E3,7.920586E2,1.9499861E4,1.7976824E4,2.6356836E4,2.5123428E4,3.488687E4,-7.094447E3,-3.957319E2,-6.9976104E3,-5.16377E3,-3.8647137E2,-5.3719116E3,-2.8850361E3,-5.952243E1,-1.8749033E3,3.7799655E2,1.7141738E3,5.2779043E3,3.049271E3,9.344679E3,7.613094E3,1.0779671E4,6.634159E2,1.0489664E3,7.474465E2,9.7472186E2,1.2078158E3,1.5111973E3,2.0737566E4,1.3940427E3,2.8534564E4,1.8304755E3,-3.9171365E2,-3.3956824E2,-3.8766653E2,-3.301539E2,-2.8326364E2,-1.911755E2,-2.813092E2,-2.0265947E2,-1.7787457E2,-9.753011E1,-5.715995E1,4.1853382E1,-1.4447899E2,-6.144192E1,-9.661968E1,4.4117657E1,5.402071E1,1.5114119E2,2.0079805E2,3.2381296E2,-5.645465E1,1.8416861E2,4.0315915E2,5.1956537E2,2.011535E2,5.5237006E2,5.0541486E2,6.359336E2,8.282422E2,1.1162861E3,1.1203226E3,1.6353861E3],"categories":[],"categories_nodes":[],"categories_segments":[],"categories_sizes":[],"default_left":[0,0,0,0,0,0,0,0,0,0,0,0,0,0,0,0,0,0,0,0,0,0,0,0,0,0,0,0,0,0,0,0,0,0,0,0,0,0,0,0,0,0,0,0,0,0,0,0,0,0,0,0,0,0,0,0,0,0,0,0,0,0,0,0,0,0,0,0,0,0,0,0,0,0,0,0,0,0,0,0,0,0,0,0,0,0,0],"id":14,"left_children":[1,3,5,7,9,11,13,15,17,19,21,23,25,27,-1,29,31,33,35,37,39,41,43,-1,45,47,49,51,53,55,-1,57,59,-1,61,63,65,67,69,71,73,75,77,79,81,-1,-1,-1,-1,-1,-1,83,-1,85,-1,-1,-1,-1,-1,-1,-1,-1,-1,-1,-1,-1,-1,-1,-1,-1,-1,-1,-1,-1,-1,-1,-1,-1,-1,-1,-1,-1,-1,-1,-1,-1,-1],"loss_changes":[6.666194E11,1.5554794E11,2.3670424E10,1.3147767E10,1.7019449E10,1.8784911E9,3.4720317E9,2.1738947E9,8.1104794E9,2.3756692E9,2.9771244E9,1.625047E8,2.837504E9,7.764574E9,0E0,1.8515558E8,1.6655319E9,7.419597E8,2.0893189E9,3.9504646E8,1.3414428E9,5.2278784E9,1.05619866E9,0E0,3.1167693E8,8.998093E7,2.3148954E8,1.5865856E9,9.797796E8,6.832742E7,0E0,2.49344E8,6.619095E8,0E0,7.141939E7,4.957532E8,3.798863E8,8.36369E7,2.2077402E8,2.4471558E8,2.2351411E8,7.3277286E8,2.609152E8,2.261125E9,2.5546547E8,0E0,0E0,0E0,0E0,0E0,0E0,1.1394458E8,0E0,3.9236813E8,0E0,0E0,0E0,0E0,0E0,0E0,0E0,0E0,0E0,0E0,0E0,0E0,0E0,0E0,0E0,0E0,0E0,0E0,0E0,0E0,0E0,0E0,0E0,0E0,0E0,0E0,0E0,0E0,0E0,0E0,0E0,0E0,0E0],"parents":[2147483647,0,0,1,1,2,2,3,3,4,4,5,5,6,6,7,7,8,8,9,9,10,10,11,11,12,12,13,13,15,15,16,16,17,17,18,18,19,19,20,20,21,21,22,22,24,24,25,25,26,26,27,27,28,28,29,29,31,31,32,32,34,34,35,35,36,36,37,37,38,38,39,39,40,40,41,41,42,42,43,43,44,44,51,51,53,53],"right_children":[2,4,6,8,10,12,14,16,18,20,22,24,26,28,-1,30,32,34,36,38,40,42,44,-1,46,48,50,52,54,56,-1,58,60,-1,62,64,66,68,70,72,74,76,78,80,82,-1,-1,-1,-1,-1,-1,84,-1,86,-1,-1,-1,-1,-1,-1,-1,-1,-1,-1,-1,-1,-1,-1,-1,-1,-1,-1,-1,-1,-1,-1,-1,-1,-1,-1,-1,-1,-1,-1,-1,-1,-1],"split_conditions":[1E0,1.2814194E2,8.977059E2,6.665051E1,2.2451355E2,7.03125E2,8.128E1,7.52E1,8.018E1,1.0844E2,3.3281332E2,9.15E1,7.766E1,1.1956522E3,1.8743193E3,1E0,3.520507E1,1.057E1,1.474E2,1.6527788E2,1.7731993E2,1.1224E2,7.284E1,7.920586E2,5.3337396E2,6.596E1,9.184E1,6.405E1,5.465E1,2.008032E1,-3.957319E2,1.3616558E1,1.352E2,-3.8647137E2,9.98004E1,1.1912E2,9.188361E1,8.67E1,7.808E1,1.413E2,1.3324E2,7.032E1,1.2828E2,5.510132E2,4.584766E2,6.634159E2,1.0489664E3,7.474465E2,9.7472186E2,1.2078158E3,1.5111973E3,5.526E1,1.3940427E3,1.4811117E3,1.8304755E3,-3.9171365E2,-3.3956824E2,-3.8766653E2,-3.301539E2,-2.8326364E2,-1.911755E2,-2.813092E2,-2.0265947E2,-1.7787457E2,-9.753011E1,-5.715995E1,4.1853382E1,-1.4447899E2,-6.144192E1,-9.661968E1,4.4117657E1,5.402071E1,1.5114119E2,2.0079805E2,3.2381296E2,-5.645465E1,1.8416861E2,4.0315915E2,5.1956537E2,2.011535E2,5.5237006E2,5.0541486E2,6.359336E2,8.282422E2,1.1162861E3,1.1203226E3,1.6353861E3],"split_indices":[37,8,8,8,8,8,0,0,0,0,8,0,0,8,0,10,8,0,0,8,8,0,0,0,8,0,0,0,0,8,0,8,0,0,8,0,8,0,0,0,0,0,0,8,8,0,0,0,0,0,0,0,0,8,0,0,0,0,0,0,0,0,0,0,0,0,0,0,0,0,0,0,0,0,0,0,0,0,0,0,0,0,0,0,0,0,0],"split_type":[0,0,0,0,0,0,0,0,0,0,0,0,0,0,0,0,0,0,0,0,0,0,0,0,0,0,0,0,0,0,0,0,0,0,0,0,0,0,0,0,0,0,0,0,0,0,0,0,0,0,0,0,0,0,0,0,0,0,0,0,0,0,0,0,0,0,0,0,0,0,0,0,0,0,0,0,0,0,0,0,0,0,0,0,0,0,0],"sum_hessian":[8E3,7.196E3,8.04E2,5.405E3,1.791E3,3.34E2,4.7E2,3.654E3,1.751E3,7.81E2,1.01E3,1.4E2,1.94E2,3.62E2,1.08E2,1.631E3,2.023E3,5.63E2,1.188E3,3.19E2,4.62E2,5.3E2,4.8E2,7.7E1,6.3E1,8.2E1,1.12E2,1.78E2,1.84E2,5.41E2,1.09E3,1.007E3,1.016E3,2.83E2,2.8E2,7.99E2,3.89E2,1.32E2,1.87E2,2.98E2,1.64E2,2.74E2,2.56E2,1.86E2,2.94E2,1.4E1,4.9E1,3.1E1,5.1E1,7.6E1,3.6E1,7.2E1,1.06E2,4.3E1,1.41E2,1.5E2,3.91E2,3.39E2,6.68E2,7.37E2,2.79E2,2.32E2,4.8E1,4.63E2,3.36E2,1.76E2,2.13E2,5E1,8.2E1,3.3E1,1.54E2,2.02E2,9.6E1,8.2E1,8.2E1,3.6E1,2.38E2,1.19E2,1.37E2,9.2E1,9.4E1,2.23E2,7.1E1,2.3E1,4.9E1,2E1,2.3E1],"tree_param":{"num_deleted":"0","num_feature":"38","num_nodes":"87","size_leaf_vector":"1"}},{"base_weights":[2.808171E1,-2.8739316E3,2.5973127E4,-5.1808438E3,5.589601E3,2.0196082E4,3.071955E4,-6.0715776E3,-1.8185732E3,2.8609802E3,7.9699385E3,1.714207E4,2.261782E4,2.8712025E4,1.7617838E3,-6.79682E3,-4.6334673E3,-3.8969895E3,1.17479935E2,7.9994617E2,5.4059854E3,6.831628E3,9.710878E3,6.457033E2,1.7800129E4,1.7439121E4,2.6186809E4,2.3175775E4,3.2795445E4,-3.7262808E2,-6.2276206E3,-5.8218154E3,-2.8272996E3,-6.803467E3,-2.9303613E3,-6.570762E2,8.5723834E2,-6.216039E2,1.658798E3,3.4595752E3,7.3070103E3,4.358419E3,9.162774E3,6.382302E3,1.0240598E4,7.2611615E2,1.9185326E4,6.8099994E2,9.2023486E2,1.2015566E3,1.5017972E3,9.272344E2,1.2533915E3,2.7170465E4,1.7204882E3,-3.3783603E2,-2.6533182E2,-3.4923325E2,-2.6324597E2,-1.6762907E2,-5.964567E1,-3.6595377E2,-2.6773984E2,-1.7060266E2,-9.8335106E1,-7.859966E1,5.5847927E1,5.8525434E0,7.733782E1,-1.2978534E2,-7.5555644E0,3.7292747E1,1.4122714E2,1.1151882E2,2.2144615E2,2.847545E2,4.4050815E2,7.131471E1,2.7852405E2,4.1599136E2,5.5674646E2,2.1307303E2,5.800656E2,4.8604776E2,6.35181E2,8.6169745E2,1.0743202E3,1.0669738E3,1.5570238E3],"categories":[],"categories_nodes":[],"categories_segments":[],"categories_sizes":[],"default_left":[0,0,0,0,0,0,0,0,0,0,0,0,0,0,0,0,0,0,0,0,0,0,0,0,0,0,0,0,0,0,0,0,0,0,0,0,0,0,0,0,0,0,0,0,0,0,0,0,0,0,0,0,0,0,0,0,0,0,0,0,0,0,0,0,0,0,0,0,0,0,0,0,0,0,0,0,0,0,0,0,0,0,0,0,0,0,0,0,0],"id":15,"left_children":[1,3,5,7,9,11,13,15,17,19,21,23,25,27,-1,29,31,33,35,37,39,41,43,-1,45,47,49,51,53,-1,55,57,59,61,63,65,67,69,71,73,75,77,79,81,83,-1,85,-1,-1,-1,-1,-1,-1,87,-1,-1,-1,-1,-1,-1,-1,-1,-1,-1,-1,-1,-1,-1,-1,-1,-1,-1,-1,-1,-1,-1,-1,-1,-1,-1,-1,-1,-1,-1,-1,-1,-1,-1,-1],"loss_changes":[6.024929E11,1.4054769E11,2.1452947E10,1.6928047E10,9.992544E9,2.319237E9,2.9774643E9,4.6316585E9,4.7728333E9,3.7723213E9,1.5646228E9,2.3198515E8,3.2583516E9,6.248055E9,0E0,1.06213376E9,3.2073667E9,1.5870874E9,3.5294867E8,4.8817056E8,1.1661773E9,2.8485386E9,5.041582E8,0E0,3.615826E8,6.2777344E7,2.4900403E8,7.180288E8,6.632243E8,0E0,7.418634E8,5.49292E8,5.0939136E8,6.687437E7,1.9335424E8,4.9030726E8,1.6058635E8,1.3985669E8,2.628937E8,1.8195686E8,3.423447E8,8.62764E8,3.346002E8,4.7079E8,2.3104102E8,0E0,6.0768256E7,0E0,0E0,0E0,0E0,0E0,0E0,3.540398E8,0E0,0E0,0E0,0E0,0E0,0E0,0E0,0E0,0E0,0E0,0E0,0E0,0E0,0E0,0E0,0E0,0E0,0E0,0E0,0E0,0E0,0E0,0E0,0E0,0E0,0E0,0E0,0E0,0E0,0E0,0E0,0E0,0E0,0E0,0E0],"parents":[2147483647,0,0,1,1,2,2,3,3,4,4,5,5,6,6,7,7,8,8,9,9,10,10,11,11,12,12,13,13,15,15,16,16,17,17,18,18,19,19,20,20,21,21,22,22,24,24,25,25,26,26,27,27,28,28,30,30,31,31,32,32,33,33,34,34,35,35,36,36,37,37,38,38,39,39,40,40,41,41,42,42,43,43,44,44,46,46,53,53],"right_children":[2,4,6,8,10,12,14,16,18,20,22,24,26,28,-1,30,32,34,36,38,40,42,44,-1,46,48,50,52,54,-1,56,58,60,62,64,66,68,70,72,74,76,78,80,82,84,-1,86,-1,-1,-1,-1,-1,-1,88,-1,-1,-1,-1,-1,-1,-1,-1,-1,-1,-1,-1,-1,-1,-1,-1,-1,-1,-1,-1,-1,-1,-1,-1,-1,-1,-1,-1,-1,-1,-1,-1,-1,-1,-1],"split_conditions":[1E0,1.4983768E2,9.2674316E2,8.687653E1,2.560273E2,7.2092053E2,7.573E1,1.0365E2,1.1403E2,1.1998E2,3.8865546E2,7.726E1,7.573E1,1.1956522E3,1.7617838E3,5.465E1,5.509642E1,5.778E1,1.09546165E2,9.313E1,1.9930244E2,9.759E1,5.526E1,6.457033E2,5.776494E2,6.281E1,9.184E1,5.901E1,5.465E1,-3.7262808E2,4.99002E1,1.9550343E1,1.6271E2,8.15E0,1.2164671E2,1.6481E2,1.3852E2,6.596E1,1.95427E2,1.3459E2,1.3852E2,7.839E1,3.1435855E2,6.747349E2,5.9679224E2,7.2611615E2,9.068E1,6.8099994E2,9.2023486E2,1.2015566E3,1.5017972E3,9.272344E2,1.2533915E3,1.4811117E3,1.7204882E3,-3.3783603E2,-2.6533182E2,-3.4923325E2,-2.6324597E2,-1.6762907E2,-5.964567E1,-3.6595377E2,-2.6773984E2,-1.7060266E2,-9.8335106E1,-7.859966E1,5.5847927E1,5.8525434E0,7.733782E1,-1.2978534E2,-7.5555644E0,3.7292747E1,1.4122714E2,1.1151882E2,2.2144615E2,2.847545E2,4.4050815E2,7.131471E1,2.7852405E2,4.1599136E2,5.5674646E2,2.1307303E2,5.800656E2,4.8604776E2,6.35181E2,8.6169745E2,1.0743202E3,1.0669738E3,1.5570238E3],"split_indices":[37,8,8,8,8,8,0,0,0,0,8,0,0,8,0,0,8,0,8,0,8,0,0,0,8,0,0,0,0,0,8,8,0,0,8,0,0,0,8,0,0,0,8,8,8,0,0,0,0,0,0,0,0,8,0,0,0,0,0,0,0,0,0,0,0,0,0,0,0,0,0,0,0,0,0,0,0,0,0,0,0,0,0,0,0,0,0,0,0],"split_type":[0,0,0,0,0,0,0,0,0,0,0,0,0,0,0,0,0,0,0,0,0,0,0,0,0,0,0,0,0,0,0,0,0,0,0,0,0,0,0,0,0,0,0,0,0,0,0,0,0,0,0,0,0,0,0,0,0,0,0,0,0,0,0,0,0,0,0,0,0,0,0,0,0,0,0,0,0,0,0,0,0,0,0,0,0,0,0,0,0],"sum_hessian":[8E3,7.196E3,8.04E2,5.655E3,1.541E3,3.65E2,4.39E2,4.47E3,1.185E3,7.19E2,8.22E2,1.65E2,2E2,3.09E2,1.3E2,2.969E3,1.501E3,5.71E2,6.14E2,3.98E2,3.21E2,5E2,3.22E2,2.5E1,1.4E2,8.4E1,1.16E2,1.34E2,1.75E2,1.374E3,1.595E3,9.04E2,5.97E2,1.41E2,4.3E2,3E2,3.14E2,1.5E2,2.48E2,1.6E2,1.61E2,2.44E2,2.56E2,4.6E1,2.76E2,4.5E1,9.5E1,2E1,6.4E1,7.9E1,3.7E1,4.2E1,9.2E1,4.3E1,1.32E2,1.009E3,5.86E2,2.89E2,6.15E2,4.51E2,1.46E2,1.01E2,4E1,2.85E2,1.45E2,1.98E2,1.02E2,1.52E2,1.62E2,2.8E1,1.22E2,1.4E2,1.08E2,7.2E1,8.8E1,8E1,8.1E1,7.2E1,1.72E2,1.83E2,7.3E1,3.4E1,1.2E1,2.32E2,4.4E1,5.6E1,3.9E1,2E1,2.3E1],"tree_param":{"num_deleted":"0","num_feature":"38","num_nodes":"89","size_leaf_vector":"1"}},{"base_weights":[2.887457E1,-2.7300017E3,2.469422E4,-5.233178E3,4.3166855E3,1.7675404E4,2.8242895E4,-6.2922295E3,-3.5333298E3,9.77848E2,6.8486855E3,1.6093104E4,2.005382E4,2.474811E4,3.0582941E4,-3.558158E2,-5.691591E3,-5.397434E3,-1.6875663E3,-1.0641951E3,2.1322144E3,5.3604062E3,8.66927E3,6.6361774E2,1.6892934E4,7.606427E2,1.1519828E3,1.9286143E4,3.008325E4,2.8477541E4,1.712388E3,-6.2922437E3,-4.5186665E3,-6.2969463E3,-4.616322E3,-2.3916914E3,5.1164745E1,-1.9682805E3,3.6745644E1,1.2020175E3,3.8582292E3,2.597951E3,8.296689E3,7.551311E3,1.0563736E4,6.9532837E2,9.255461E2,7.341437E2,1.0443187E3,1.3488721E3,1.7197717E3,2.4717715E4,1.6433895E3,-3.4202112E2,-2.9279102E2,-1.921611E2,-2.6169388E2,-3.5555655E2,-2.9680072E2,-2.4733284E2,-1.673156E2,-1.4693466E2,-6.086694E1,-5.498244E1,5.217108E1,-1.4287302E2,-6.792171E1,-5.415948E1,4.528428E1,3.1214216E1,1.1212538E2,1.3785728E2,2.5985736E2,-5.6196278E1,1.5960373E2,3.4807712E2,4.5938654E2,2.48619E2,4.9521664E2,5.0223404E2,6.218063E2,1.025867E3,1.3562426E3],"categories":[],"categories_nodes":[],"categories_segments":[],"categories_sizes":[],"default_left":[0,0,0,0,0,0,0,0,0,0,0,0,0,0,0,0,0,0,0,0,0,0,0,0,0,0,0,0,0,0,0,0,0,0,0,0,0,0,0,0,0,0,0,0,0,0,0,0,0,0,0,0,0,0,0,0,0,0,0,0,0,0,0,0,0,0,0,0,0,0,0,0,0,0,0,0,0,0,0,0,0,0,0],"id":16,"left_children":[1,3,5,7,9,11,13,15,17,19,21,23,25,27,29,-1,31,33,35,37,39,41,43,-1,45,-1,-1,47,49,51,-1,53,55,57,59,61,63,65,67,69,71,73,75,77,79,-1,-1,-1,-1,-1,-1,81,-1,-1,-1,-1,-1,-1,-1,-1,-1,-1,-1,-1,-1,-1,-1,-1,-1,-1,-1,-1,-1,-1,-1,-1,-1,-1,-1,-1,-1,-1,-1],"loss_changes":[5.4452457E11,1.269712E11,1.9551355E10,9.538765E9,1.5945884E10,7.0466765E8,3.6019896E9,1.578582E9,7.0133535E9,1.9234405E9,2.8608594E9,1.570775E8,1.1672084E9,5.80155E9,1.4552269E9,0E0,1.3080412E9,6.8408934E8,1.2574623E9,2.9369894E8,8.318454E8,4.788477E9,9.3895885E8,0E0,3.610583E8,0E0,0E0,5.109883E8,5.3190656E8,2.5879347E9,0E0,2.5946931E8,2.919588E8,9.561088E7,2.1292954E8,4.659973E8,3.4029248E8,8.396499E7,1.31383976E8,2.0298278E8,2.539863E8,6.8244275E8,2.7747533E8,1.8076467E9,4.613325E7,0E0,0E0,0E0,0E0,0E0,0E0,6.062162E8,0E0,0E0,0E0,0E0,0E0,0E0,0E0,0E0,0E0,0E0,0E0,0E0,0E0,0E0,0E0,0E0,0E0,0E0,0E0,0E0,0E0,0E0,0E0,0E0,0E0,0E0,0E0,0E0,0E0,0E0,0E0],"parents":[2147483647,0,0,1,1,2,2,3,3,4,4,5,5,6,6,7,7,8,8,9,9,10,10,11,11,12,12,13,13,14,14,16,16,17,17,18,18,19,19,20,20,21,21,22,22,24,24,27,27,28,28,29,29,31,31,32,32,33,33,34,34,35,35,36,36,37,37,38,38,39,39,40,40,41,41,42,42,43,43,44,44,51,51],"right_children":[2,4,6,8,10,12,14,16,18,20,22,24,26,28,30,-1,32,34,36,38,40,42,44,-1,46,-1,-1,48,50,52,-1,54,56,58,60,62,64,66,68,70,72,74,76,78,80,-1,-1,-1,-1,-1,-1,82,-1,-1,-1,-1,-1,-1,-1,-1,-1,-1,-1,-1,-1,-1,-1,-1,-1,-1,-1,-1,-1,-1,-1,-1,-1,-1,-1,-1,-1,-1,-1],"split_conditions":[1E0,1.2164671E2,8.328463E2,1.0146E2,2.147278E2,9.003E1,1.0443865E3,5.01E1,5.9241707E1,1.0634E2,3.3281332E2,6.44581E2,5.9679224E2,8.018E1,6.967E1,-3.558158E2,5.7971016E1,2.919708E1,1.5811E2,1.6895062E2,1.6895062E2,1.1224E2,8.48E1,6.6361774E2,7.284E1,7.606427E2,1.1519828E3,6.039E1,9.068E1,1.3937283E3,1.712388E3,2.967359E1,1E0,9.737099E0,1.6481E2,9.68651E1,8.512087E1,8.48E1,9.224E1,1.4015E2,1.3324E2,7.032E1,2.4935583E2,4.7826086E2,4.3816943E2,6.9532837E2,9.255461E2,7.341437E2,1.0443187E3,1.3488721E3,1.7197717E3,5.828E1,1.6433895E3,-3.4202112E2,-2.9279102E2,-1.921611E2,-2.6169388E2,-3.5555655E2,-2.9680072E2,-2.4733284E2,-1.673156E2,-1.4693466E2,-6.086694E1,-5.498244E1,5.217108E1,-1.4287302E2,-6.792171E1,-5.415948E1,4.528428E1,3.1214216E1,1.1212538E2,1.3785728E2,2.5985736E2,-5.6196278E1,1.5960373E2,3.4807712E2,4.5938654E2,2.48619E2,4.9521664E2,5.0223404E2,6.218063E2,1.025867E3,1.3562426E3],"split_indices":[37,8,8,0,8,0,8,0,8,0,8,8,8,0,0,0,8,8,0,8,8,0,0,0,0,0,0,0,0,8,0,8,13,8,0,8,8,0,0,0,0,0,8,8,8,0,0,0,0,0,0,0,0,0,0,0,0,0,0,0,0,0,0,0,0,0,0,0,0,0,0,0,0,0,0,0,0,0,0,0,0,0,0],"split_type":[0,0,0,0,0,0,0,0,0,0,0,0,0,0,0,0,0,0,0,0,0,0,0,0,0,0,0,0,0,0,0,0,0,0,0,0,0,0,0,0,0,0,0,0,0,0,0,0,0,0,0,0,0,0,0,0,0,0,0,0,0,0,0,0,0,0,0,0,0,0,0,0,0,0,0,0,0,0,0,0,0,0,0],"sum_hessian":[8E3,7.196E3,8.04E2,5.31E3,1.886E3,2.72E2,5.32E2,3.27E3,2.04E3,8.14E2,1.072E3,1.68E2,1.04E2,2.18E2,3.14E2,1.374E3,1.896E3,1.014E3,1.026E3,2.94E2,5.2E2,5.92E2,4.8E2,4.1E1,1.27E2,4.2E1,6.2E1,1.1E2,1.08E2,2.05E2,1.09E2,1.251E3,6.45E2,4.68E2,5.46E2,7.3E2,2.96E2,1.61E2,1.33E2,3.39E2,1.81E2,3.06E2,2.86E2,3.05E2,1.75E2,4.8E1,7.9E1,3.1E1,7.9E1,6.7E1,4.1E1,1.14E2,9.1E1,5.48E2,7.03E2,3.35E2,3.1E2,1.38E2,3.3E2,4.31E2,1.15E2,4.97E2,2.33E2,1.37E2,1.59E2,6.4E1,9.7E1,5.8E1,7.5E1,2.19E2,1.2E2,1.01E2,8E1,4.2E1,2.64E2,1.18E2,1.68E2,1.47E2,1.58E2,1.42E2,3.3E1,4.5E1,6.9E1],"tree_param":{"num_deleted":"0","num_feature":"38","num_nodes":"83","size_leaf_vector":"1"}},{"base_weights":[2.9325602E1,-2.5934492E3,2.3477873E4,-4.6774365E3,5.0522217E3,1.8989104E4,2.8523506E4,-5.671489E3,-2.2123413E3,2.58029E3,7.208648E3,1.6139171E4,2.1803406E4,2.6182535E4,1.5945814E3,-6.1760884E3,-4.5204775E3,-4.8715947E3,-8.60968E2,9.3106836E2,5.245645E3,5.995311E3,8.566765E3,1.3920179E4,1.7462611E4,1.8086742E4,1.3703387E3,2.1668146E4,3.0354463E4,-3.3718207E2,-5.7023076E3,-5.4582905E3,-3.1131516E3,-6.4489946E3,-3.744448E3,-2.19908E3,-1.4899493E2,-7.816767E1,2.184131E3,3.5581343E3,7.127958E3,3.6789998E3,8.538929E3,6.2792197E3,9.514323E3,5.640846E2,1.4650883E4,7.104297E2,9.766616E2,7.30139E2,1.00975684E3,8.888398E2,1.1902296E3,2.8170438E4,1.739664E3,-3.049085E2,-2.4227464E2,-3.1541388E2,-2.4743118E2,-1.7219121E2,-8.692254E1,-3.318348E2,-2.5240758E2,-2.2441336E2,-1.530689E2,-1.4950865E2,-5.0939575E1,-4.2854126E1,5.092245E1,-8.9916245E1,1.7183084E1,6.1585377E1,1.7366905E2,1.3799738E2,2.3850047E2,2.8212436E2,4.274238E2,5.074725E1,2.252875E2,3.7621915E2,4.8803302E2,1.1549859E2,4.6790073E2,4.3971457E2,5.480485E2,6.14337E2,8.1293475E2,1.1535907E3,1.5792439E3],"categories":[],"categories_nodes":[],"categories_segments":[],"categories_sizes":[],"default_left":[0,0,0,0,0,0,0,0,0,0,0,0,0,0,0,0,0,0,0,0,0,0,0,0,0,0,0,0,0,0,0,0,0,0,0,0,0,0,0,0,0,0,0,0,0,0,0,0,0,0,0,0,0,0,0,0,0,0,0,0,0,0,0,0,0,0,0,0,0,0,0,0,0,0,0,0,0,0,0,0,0,0,0,0,0,0,0,0,0],"id":17,"left_children":[1,3,5,7,9,11,13,15,17,19,21,23,25,27,-1,29,31,33,35,37,39,41,43,45,47,49,-1,51,53,-1,55,57,59,61,63,65,67,69,71,73,75,77,79,81,83,-1,85,-1,-1,-1,-1,-1,-1,87,-1,-1,-1,-1,-1,-1,-1,-1,-1,-1,-1,-1,-1,-1,-1,-1,-1,-1,-1,-1,-1,-1,-1,-1,-1,-1,-1,-1,-1,-1,-1,-1,-1,-1,-1],"loss_changes":[4.9212444E11,1.1469688E11,1.7690526E10,1.384711E10,8.201089E9,3.088941E9,2.1375222E9,2.3127163E9,5.8426655E9,3.160064E9,1.3048177E9,3.9417856E8,3.9402045E9,3.636347E9,0E0,7.1417856E8,1.6090132E9,9.501737E8,1.02858816E9,5.6419846E8,8.481546E8,2.5491988E9,7.769477E8,5.18144E5,6.118564E8,6.673654E8,0E0,5.1627622E8,1.4442496E8,0E0,4.900741E8,2.8849152E8,2.1902746E8,2.6184704E7,1.4986189E8,3.4709773E8,5.844896E8,1.8056998E8,2.4007629E8,1.2902835E8,2.2397235E8,5.0420634E8,1.8437325E8,1.3959613E9,1.8588877E8,0E0,4.350464E7,0E0,0E0,0E0,0E0,0E0,0E0,7.1622656E8,0E0,0E0,0E0,0E0,0E0,0E0,0E0,0E0,0E0,0E0,0E0,0E0,0E0,0E0,0E0,0E0,0E0,0E0,0E0,0E0,0E0,0E0,0E0,0E0,0E0,0E0,0E0,0E0,0E0,0E0,0E0,0E0,0E0,0E0,0E0],"parents":[2147483647,0,0,1,1,2,2,3,3,4,4,5,5,6,6,7,7,8,8,9,9,10,10,11,11,12,12,13,13,15,15,16,16,17,17,18,18,19,19,20,20,21,21,22,22,23,23,24,24,25,25,27,27,28,28,30,30,31,31,32,32,33,33,34,34,35,35,36,36,37,37,38,38,39,39,40,40,41,41,42,42,43,43,44,44,46,46,53,53],"right_children":[2,4,6,8,10,12,14,16,18,20,22,24,26,28,-1,30,32,34,36,38,40,42,44,46,48,50,-1,52,54,-1,56,58,60,62,64,66,68,70,72,74,76,78,80,82,84,-1,86,-1,-1,-1,-1,-1,-1,88,-1,-1,-1,-1,-1,-1,-1,-1,-1,-1,-1,-1,-1,-1,-1,-1,-1,-1,-1,-1,-1,-1,-1,-1,-1,-1,-1,-1,-1,-1,-1,-1,-1,-1,-1],"split_conditions":[1E0,1.4983768E2,9.841575E2,7.523039E1,2.560273E2,7.7763763E2,6.967E1,1.0691E2,9.224E1,1.2455E2,3.6779324E2,8.45E1,8.353E1,1.3191489E3,1.5945814E3,5.465E1,4.652786E1,5.296E1,1.2121E2,1.0365E2,2.0391518E2,1.0301E2,6.45E1,6.44581E2,5.9679224E2,6.663E1,1.3703387E3,5.828E1,1.6083422E3,-3.3718207E2,4.99002E1,1.9029495E1,1.7214E2,9.31E0,9.5188644E1,1.140829E2,1.09546165E2,7.726E1,1.95427E2,1.474E2,1.4235E2,7.839E1,2.9356506E2,5.776494E2,8.861E1,5.640846E2,7.425E1,7.104297E2,9.766616E2,7.30139E2,1.00975684E3,8.888398E2,1.1902296E3,5.692E1,1.739664E3,-3.049085E2,-2.4227464E2,-3.1541388E2,-2.4743118E2,-1.7219121E2,-8.692254E1,-3.318348E2,-2.5240758E2,-2.2441336E2,-1.530689E2,-1.4950865E2,-5.0939575E1,-4.2854126E1,5.092245E1,-8.9916245E1,1.7183084E1,6.1585377E1,1.7366905E2,1.3799738E2,2.3850047E2,2.8212436E2,4.274238E2,5.074725E1,2.252875E2,3.7621915E2,4.8803302E2,1.1549859E2,4.6790073E2,4.3971457E2,5.480485E2,6.14337E2,8.1293475E2,1.1535907E3,1.5792439E3],"split_indices":[37,8,8,8,8,8,0,0,0,0,8,0,0,8,0,0,8,0,0,0,8,0,0,8,8,0,0,0,8,0,8,8,0,0,8,8,8,0,8,0,0,0,8,8,0,0,0,0,0,0,0,0,0,0,0,0,0,0,0,0,0,0,0,0,0,0,0,0,0,0,0,0,0,0,0,0,0,0,0,0,0,0,0,0,0,0,0,0,0],"split_type":[0,0,0,0,0,0,0,0,0,0,0,0,0,0,0,0,0,0,0,0,0,0,0,0,0,0,0,0,0,0,0,0,0,0,0,0,0,0,0,0,0,0,0,0,0,0,0,0,0,0,0,0,0,0,0,0,0,0,0,0,0,0,0,0,0,0,0,0,0,0,0,0,0,0,0,0,0,0,0,0,0,0,0,0,0,0,0,0,0],"sum_hessian":[8E3,7.196E3,8.04E2,5.655E3,1.541E3,4.28E2,3.76E2,4.029E3,1.626E3,7.19E2,8.22E2,2.16E2,2.12E2,2.27E2,1.49E2,2.798E3,1.231E3,5.47E2,1.079E3,4.45E2,2.74E2,4.37E2,3.85E2,8.5E1,1.31E2,1.3E2,8.2E1,1.12E2,1.15E2,1.267E3,1.531E3,7.37E2,4.94E2,2.26E2,3.21E2,3.74E2,7.05E2,2.47E2,1.98E2,1.46E2,1.28E2,2.3E2,2.07E2,1.15E2,2.7E2,2.2E1,6.3E1,5.4E1,7.7E1,5.2E1,7.8E1,4.3E1,6.9E1,8.2E1,3.3E1,1.043E3,4.88E2,2.72E2,4.65E2,3.97E2,9.7E1,1.96E2,3E1,1.51E2,1.7E2,2.23E2,1.51E2,4.39E2,2.66E2,4.8E1,1.99E2,1.15E2,8.3E1,9E1,5.6E1,6.5E1,6.3E1,5.5E1,1.75E2,1.17E2,9E1,5.1E1,6.4E1,1.85E2,8.5E1,2.9E1,3.4E1,3.6E1,4.6E1],"tree_param":{"num_deleted":"0","num_feature":"38","num_nodes":"89","size_leaf_vector":"1"}},{"base_weights":[2.986339E1,-2.4636238E3,2.2322531E4,-4.496556E3,4.6164644E3,1.6468377E4,2.5823209E4,-5.388338E3,-2.1943323E3,2.0682302E3,6.6849297E3,1.3917996E4,1.7967984E4,2.4317102E4,3.0171092E4,-5.853364E3,-4.260221E3,-4.2519707E3,-6.2546075E2,7.4911676E2,4.5966133E3,5.4533237E3,8.057039E3,5.9816296E2,1.497355E4,6.5295795E2,1.9848713E4,2.0100107E4,2.8607805E4,2.6746713E4,1.623979E3,-3.195369E2,-5.393044E3,-5.1728984E3,-2.9370886E3,-5.757991E3,-3.0277834E3,-1.6676058E3,1.0165453E2,-2.4943935E2,1.8597322E3,2.9057236E3,6.145911E3,3.0650967E3,8.062426E3,6.4676577E3,9.321155E3,6.036189E2,8.27269E2,8.8111615E2,1.1150443E3,1.6645277E4,2.218419E4,2.3195594E4,1.5041683E3,1.1696288E3,1.5611508E3,-3.049774E2,-2.456313E2,-2.9949963E2,-2.3380276E2,-1.6280112E2,-8.399119E1,-3.1532727E2,-2.3420943E2,-1.8509901E2,-1.3028581E2,-1.16906364E2,-4.597972E0,-1.668306E1,7.117814E1,-4.916357E1,2.9971094E1,4.926622E1,1.630781E2,9.097748E1,1.7232011E2,2.4750371E2,3.4895374E2,1.6295385E1,1.8880911E2,3.5756638E2,4.6697452E2,1.6691803E2,4.4815332E2,4.4533633E2,5.8935614E2,7.0993176E2,9.4532733E2,9.621513E2,1.1898002E3,9.860513E2,1.4616227E3],"categories":[],"categories_nodes":[],"categories_segments":[],"categories_sizes":[],"default_left":[0,0,0,0,0,0,0,0,0,0,0,0,0,0,0,0,0,0,0,0,0,0,0,0,0,0,0,0,0,0,0,0,0,0,0,0,0,0,0,0,0,0,0,0,0,0,0,0,0,0,0,0,0,0,0,0,0,0,0,0,0,0,0,0,0,0,0,0,0,0,0,0,0,0,0,0,0,0,0,0,0,0,0,0,0,0,0,0,0,0,0,0,0],"id":18,"left_children":[1,3,5,7,9,11,13,15,17,19,21,23,25,27,29,31,33,35,37,39,41,43,45,-1,47,-1,49,51,53,55,-1,-1,57,59,61,63,65,67,69,71,73,75,77,79,81,83,85,-1,-1,-1,-1,87,89,91,-1,-1,-1,-1,-1,-1,-1,-1,-1,-1,-1,-1,-1,-1,-1,-1,-1,-1,-1,-1,-1,-1,-1,-1,-1,-1,-1,-1,-1,-1,-1,-1,-1,-1,-1,-1,-1,-1,-1],"loss_changes":[4.4480243E11,1.03609614E11,1.6072016E10,1.1469013E10,8.451291E9,9.125888E8,2.553643E9,2.089214E9,5.0429706E9,2.4012526E9,1.453314E9,6.227763E7,1.47644E9,6.264455E9,1.1941478E8,6.7076915E8,1.4097674E9,1.2288737E9,6.730601E8,5.2724445E8,6.292055E8,2.9039186E9,7.775314E8,0E0,1.285888E8,0E0,3.3857946E8,1.0275635E9,7.7963264E8,1.1040358E8,0E0,0E0,4.9342054E8,2.5495142E8,1.8860698E8,1.483479E8,9.706266E7,3.854092E8,3.0200947E8,1.569427E8,2.725847E8,6.4201536E7,9.29833E7,4.7987533E8,1.9384115E8,1.4381476E9,1.3006848E8,0E0,0E0,0E0,0E0,1.5755674E8,1.014825E8,3.464274E8,0E0,0E0,0E0,0E0,0E0,0E0,0E0,0E0,0E0,0E0,0E0,0E0,0E0,0E0,0E0,0E0,0E0,0E0,0E0,0E0,0E0,0E0,0E0,0E0,0E0,0E0,0E0,0E0,0E0,0E0,0E0,0E0,0E0,0E0,0E0,0E0,0E0,0E0,0E0],"parents":[2147483647,0,0,1,1,2,2,3,3,4,4,5,5,6,6,7,7,8,8,9,9,10,10,11,11,12,12,13,13,14,14,15,15,16,16,17,17,18,18,19,19,20,20,21,21,22,22,24,24,26,26,27,27,28,28,29,29,32,32,33,33,34,34,35,35,36,36,37,37,38,38,39,39,40,40,41,41,42,42,43,43,44,44,45,45,46,46,51,51,52,52,53,53],"right_children":[2,4,6,8,10,12,14,16,18,20,22,24,26,28,30,32,34,36,38,40,42,44,46,-1,48,-1,50,52,54,56,-1,-1,58,60,62,64,66,68,70,72,74,76,78,80,82,84,86,-1,-1,-1,-1,88,90,92,-1,-1,-1,-1,-1,-1,-1,-1,-1,-1,-1,-1,-1,-1,-1,-1,-1,-1,-1,-1,-1,-1,-1,-1,-1,-1,-1,-1,-1,-1,-1,-1,-1,-1,-1,-1,-1,-1,-1],"split_conditions":[1E0,1.4278516E2,8.660726E2,7.523039E1,2.4508264E2,6.747349E2,8.128E1,1.0968E2,1.0515E2,1.276E2,3.5738434E2,8.748E1,7.284E1,1.1956522E3,9.841575E2,5.641E1,4.5955883E1,6.663E1,9.594883E1,1.0426E2,1.9070164E2,1.0634E2,7.52E1,5.9816296E2,5.510132E2,6.5295795E2,8.861E1,6.405E1,5.465E1,9.452E1,1.623979E3,-3.195369E2,3.1575624E1,1.8385733E1,1.7214E2,9.31E0,9.68651E1,1.5811E2,1.5567E2,1.95427E2,1.9070164E2,1.5687505E2,1.4322E2,7.766E1,1.2828E2,5.3337396E2,5.040872E2,6.036189E2,8.27269E2,8.8111615E2,1.1150443E3,1.0443865E3,9.841575E2,1.6083422E3,1.5041683E3,1.1696288E3,1.5611508E3,-3.049774E2,-2.456313E2,-2.9949963E2,-2.3380276E2,-1.6280112E2,-8.399119E1,-3.1532727E2,-2.3420943E2,-1.8509901E2,-1.3028581E2,-1.16906364E2,-4.597972E0,-1.668306E1,7.117814E1,-4.916357E1,2.9971094E1,4.926622E1,1.630781E2,9.097748E1,1.7232011E2,2.4750371E2,3.4895374E2,1.6295385E1,1.8880911E2,3.5756638E2,4.6697452E2,1.6691803E2,4.4815332E2,4.4533633E2,5.8935614E2,7.0993176E2,9.4532733E2,9.621513E2,1.1898002E3,9.860513E2,1.4616227E3],"split_indices":[37,8,8,8,8,8,0,0,0,0,8,0,0,8,8,0,8,0,8,0,8,0,0,0,8,0,0,0,0,0,0,0,8,8,0,0,8,0,0,8,8,8,0,0,0,8,8,0,0,0,0,8,8,8,0,0,0,0,0,0,0,0,0,0,0,0,0,0,0,0,0,0,0,0,0,0,0,0,0,0,0,0,0,0,0,0,0,0,0,0,0,0,0],"split_type":[0,0,0,0,0,0,0,0,0,0,0,0,0,0,0,0,0,0,0,0,0,0,0,0,0,0,0,0,0,0,0,0,0,0,0,0,0,0,0,0,0,0,0,0,0,0,0,0,0,0,0,0,0,0,0,0,0,0,0,0,0,0,0,0,0,0,0,0,0,0,0,0,0,0,0,0,0,0,0,0,0,0,0,0,0,0,0,0,0,0,0,0,0],"sum_hessian":[8E3,7.196E3,8.04E2,5.591E3,1.605E3,3.03E2,5.01E2,4.029E3,1.562E3,7.2E2,8.85E2,1.16E2,1.87E2,3.77E2,1.24E2,2.85E3,1.179E3,6.75E2,8.87E2,4.74E2,2.46E2,4.69E2,4.16E2,4.5E1,7.1E1,5.4E1,1.33E2,1.93E2,1.84E2,5.5E1,6.9E1,1.309E3,1.541E3,6.96E2,4.83E2,3.01E2,3.74E2,3.64E2,5.23E2,2.5E2,2.24E2,1.19E2,1.27E2,2.46E2,2.23E2,1.87E2,2.29E2,2.8E1,4.3E1,7.4E1,5.9E1,7.6E1,1.17E2,4.3E1,1.41E2,3.5E1,2E1,6.19E2,9.22E2,2.59E2,4.37E2,3.84E2,9.9E1,1.96E2,1.05E2,1.41E2,2.33E2,2.55E2,1.09E2,3.94E2,1.29E2,1.34E2,1.16E2,1.39E2,8.5E1,4.1E1,7.8E1,5.5E1,7.2E1,5.1E1,1.95E2,1.34E2,8.9E1,8.4E1,1.03E2,2E2,2.9E1,4E1,3.6E1,4.6E1,7.1E1,3E1,1.3E1],"tree_param":{"num_deleted":"0","num_feature":"38","num_nodes":"93","size_leaf_vector":"1"}},{"base_weights":[3.0612703E1,-2.340283E3,2.1227264E4,-4.4910273E3,3.7142715E3,1.5164365E4,2.4292826E4,-5.398339E3,-3.0347275E3,8.468704E2,5.888752E3,1.3771902E4,1.7261145E4,2.1563531E4,2.6609836E4,-3.05294E2,-4.8826475E3,-4.64275E3,-1.4425391E3,-5.129646E2,2.1652444E3,4.5081943E3,7.3982725E3,6.04399E2,1.4868541E4,1.3656644E4,1.0144831E3,1.802787E4,1.3771559E3,2.430109E4,1.4759564E3,-5.5071206E3,-4.0323586E3,-5.415213E3,-3.9719497E3,-2.0893435E3,6.0196934E1,-1.7684065E3,1.946014E2,1.2553491E3,3.677551E3,1.922835E3,6.9877637E3,5.6636865E3,8.424532E3,5.634557E2,8.109012E2,5.0175217E2,7.377881E2,1.4617668E4,1.0194782E3,2.1067967E4,1.451183E3,-3.08073E2,-2.6155844E2,-1.6975067E2,-2.2834502E2,-3.073884E2,-2.5456119E2,-2.1501688E2,-1.4689525E2,-1.2831906E2,-5.818097E1,-4.6726467E1,4.643609E1,-1.0242336E2,-1.710881E1,-2.6777994E1,6.674536E1,4.713755E1,1.1638993E2,1.5310326E2,2.4363097E2,-7.5646454E1,1.2048926E2,2.833795E2,4.0148785E2,1.0837565E2,4.059836E2,3.9398135E2,5.0922104E2,5.62028E2,7.88334E2,9.2059375E2,1.1863951E3],"categories":[],"categories_nodes":[],"categories_segments":[],"categories_sizes":[],"default_left":[0,0,0,0,0,0,0,0,0,0,0,0,0,0,0,0,0,0,0,0,0,0,0,0,0,0,0,0,0,0,0,0,0,0,0,0,0,0,0,0,0,0,0,0,0,0,0,0,0,0,0,0,0,0,0,0,0,0,0,0,0,0,0,0,0,0,0,0,0,0,0,0,0,0,0,0,0,0,0,0,0,0,0,0,0],"id":19,"left_children":[1,3,5,7,9,11,13,15,17,19,21,23,25,27,29,-1,31,33,35,37,39,41,43,-1,45,47,-1,49,-1,51,-1,53,55,57,59,61,63,65,67,69,71,73,75,77,79,-1,-1,-1,-1,81,-1,83,-1,-1,-1,-1,-1,-1,-1,-1,-1,-1,-1,-1,-1,-1,-1,-1,-1,-1,-1,-1,-1,-1,-1,-1,-1,-1,-1,-1,-1,-1,-1,-1,-1],"loss_changes":[4.0214027E11,9.373458E10,1.4593491E10,7.001129E9,1.176066E10,5.5936205E8,2.7968143E9,1.1636818E9,5.218824E9,1.4622193E9,2.2027592E9,1.3235405E8,8.6912205E8,4.788912E9,1.190232E9,0E0,9.850675E8,5.0443264E8,9.9834534E8,3.5744397E8,5.6506406E8,3.5957197E9,8.619356E8,0E0,2.9325926E8,5.4933504E7,0E0,9.9057254E8,0E0,1.8925978E9,0E0,1.647698E8,2.594304E8,8.001126E7,1.7310925E8,3.140864E8,2.686907E8,5.7216576E7,2.1552757E8,8.496938E7,9.908966E7,4.670796E8,3.492905E8,1.6396042E9,2.2566298E8,0E0,0E0,0E0,0E0,9.051648E7,0E0,2.766889E8,0E0,0E0,0E0,0E0,0E0,0E0,0E0,0E0,0E0,0E0,0E0,0E0,0E0,0E0,0E0,0E0,0E0,0E0,0E0,0E0,0E0,0E0,0E0,0E0,0E0,0E0,0E0,0E0,0E0,0E0,0E0,0E0,0E0],"parents":[2147483647,0,0,1,1,2,2,3,3,4,4,5,5,6,6,7,7,8,8,9,9,10,10,11,11,12,12,13,13,14,14,16,16,17,17,18,18,19,19,20,20,21,21,22,22,24,24,25,25,27,27,29,29,31,31,32,32,33,33,34,34,35,35,36,36,37,37,38,38,39,39,40,40,41,41,42,42,43,43,44,44,49,49,51,51],"right_children":[2,4,6,8,10,12,14,16,18,20,22,24,26,28,30,-1,32,34,36,38,40,42,44,-1,46,48,-1,50,-1,52,-1,54,56,58,60,62,64,66,68,70,72,74,76,78,80,-1,-1,-1,-1,82,-1,84,-1,-1,-1,-1,-1,-1,-1,-1,-1,-1,-1,-1,-1,-1,-1,-1,-1,-1,-1,-1,-1,-1,-1,-1,-1,-1,-1,-1,-1,-1,-1,-1,-1],"split_conditions":[1E0,1.2164671E2,8.328463E2,1.0146E2,2.147278E2,9.003E1,1.0838625E3,5.01E1,5.9241707E1,1.1554E2,3.236828E2,7.03125E2,6.189651E2,8.419E1,6.55E1,-3.05294E2,5.1912094E1,2.919708E1,1.5688E2,9.224E1,1.6527788E2,1.1087E2,7.284E1,6.04399E2,6.921E1,5.3337396E2,1.0144831E3,6.814E1,1.3771559E3,1.4811117E3,1.4759564E3,2.008032E1,1E0,9.737099E0,1.6066E2,9.5188644E1,8.512087E1,1.95427E2,1.7285435E2,1.4848E2,1.474E2,6.871E1,1.2828E2,5.040872E2,4.584766E2,5.634557E2,8.109012E2,5.0175217E2,7.377881E2,5.641E1,1.0194782E3,5.901E1,1.451183E3,-3.08073E2,-2.6155844E2,-1.6975067E2,-2.2834502E2,-3.073884E2,-2.5456119E2,-2.1501688E2,-1.4689525E2,-1.2831906E2,-5.818097E1,-4.6726467E1,4.643609E1,-1.0242336E2,-1.710881E1,-2.6777994E1,6.674536E1,4.713755E1,1.1638993E2,1.5310326E2,2.4363097E2,-7.5646454E1,1.2048926E2,2.833795E2,4.0148785E2,1.0837565E2,4.059836E2,3.9398135E2,5.0922104E2,5.62028E2,7.88334E2,9.2059375E2,1.1863951E3],"split_indices":[37,8,8,0,8,0,8,0,8,0,8,8,8,0,0,0,8,8,0,0,8,0,0,0,0,8,0,0,0,8,0,8,13,8,0,8,8,8,8,0,0,0,0,8,8,0,0,0,0,0,0,0,0,0,0,0,0,0,0,0,0,0,0,0,0,0,0,0,0,0,0,0,0,0,0,0,0,0,0,0,0,0,0,0,0],"split_type":[0,0,0,0,0,0,0,0,0,0,0,0,0,0,0,0,0,0,0,0,0,0,0,0,0,0,0,0,0,0,0,0,0,0,0,0,0,0,0,0,0,0,0,0,0,0,0,0,0,0,0,0,0,0,0,0,0,0,0,0,0,0,0,0,0,0,0,0,0,0,0,0,0,0,0,0,0,0,0,0,0,0,0,0,0],"sum_hessian":[8E3,7.196E3,8.04E2,5.31E3,1.886E3,2.72E2,5.32E2,3.27E3,2.04E3,8.14E2,1.072E3,1.68E2,1.04E2,2.49E2,2.83E2,1.374E3,1.896E3,1.014E3,1.026E3,4.01E2,4.13E2,5.62E2,5.1E2,7.1E1,9.7E1,5E1,5.4E1,1.59E2,9E1,1.63E2,1.2E2,1.09E3,8.06E2,4.68E2,5.46E2,7.17E2,3.09E2,1.44E2,2.57E2,2.59E2,1.54E2,2.76E2,2.86E2,1.92E2,3.18E2,2.9E1,6.8E1,1.4E1,3.6E1,6.8E1,9.1E1,1E2,6.3E1,3.17E2,7.73E2,3.71E2,4.35E2,1.38E2,3.3E2,4.12E2,1.34E2,4.72E2,2.45E2,1.44E2,1.65E2,1.2E2,2.4E1,1.57E2,1E2,2.02E2,5.7E1,1.04E2,5E1,3.4E1,2.42E2,1.29E2,1.57E2,8E1,1.12E2,2.47E2,7.1E1,2E1,4.8E1,5.4E1,4.6E1],"tree_param":{"num_deleted":"0","num_feature":"38","num_nodes":"85","size_leaf_vector":"1"}},{"base_weights":[3.0739182E1,-2.2232346E3,2.0182066E4,-4.266925E3,3.5299507E3,1.527727E4,2.3627768E4,-5.061583E3,-2.760117E3,8.0511676E2,5.596316E3,1.3238206E4,1.717849E4,2.2238889E4,1.4018174E3,-2.9004037E2,-4.575619E3,-4.3583535E3,-1.2153364E3,-4.8751437E2,2.0583357E3,4.284081E3,7.0311333E3,4.887297E2,1.3782998E4,1.3346992E4,2.0062861E4,1.8333781E4,2.5897135E4,-5.1268203E3,-3.5730806E3,-4.9700137E3,-3.5571018E3,-1.8263418E3,8.404615E1,-1.68081E3,1.8502591E2,1.1932109E3,3.496233E3,2.1170862E3,6.9692812E3,6.0044214E3,8.650571E3,5.582847E2,1.489355E4,5.635185E2,7.379863E2,9.145638E2,1.1418508E3,1.5179005E4,1.0157381E3,2.0914418E4,1.362935E3,-2.9120816E2,-2.4365929E2,-1.5398683E2,-2.128992E2,-2.9188602E2,-2.3406944E2,-1.919382E2,-1.2670314E2,-1.1903423E2,-5.0246883E1,-3.5038113E1,5.5092907E1,-1.0818319E2,-4.4869633E1,-3.7294292E1,5.0633125E1,4.4792316E1,1.1067074E2,1.4914554E2,2.4031465E2,-2.1337112E1,1.3735712E2,2.9184286E2,3.9056683E2,1.9006667E2,4.077945E2,4.1110846E2,5.2249774E2,6.800408E2,8.7056085E2,5.948115E2,8.225578E2,8.852363E2,1.3263853E3],"categories":[],"categories_nodes":[],"categories_segments":[],"categories_sizes":[],"default_left":[0,0,0,0,0,0,0,0,0,0,0,0,0,0,0,0,0,0,0,0,0,0,0,0,0,0,0,0,0,0,0,0,0,0,0,0,0,0,0,0,0,0,0,0,0,0,0,0,0,0,0,0,0,0,0,0,0,0,0,0,0,0,0,0,0,0,0,0,0,0,0,0,0,0,0,0,0,0,0,0,0,0,0,0,0,0,0],"id":20,"left_children":[1,3,5,7,9,11,13,15,17,19,21,23,25,27,-1,-1,29,31,33,35,37,39,41,-1,43,45,47,49,51,53,55,57,59,61,63,65,67,69,71,73,75,77,79,-1,81,-1,-1,-1,-1,83,-1,85,-1,-1,-1,-1,-1,-1,-1,-1,-1,-1,-1,-1,-1,-1,-1,-1,-1,-1,-1,-1,-1,-1,-1,-1,-1,-1,-1,-1,-1,-1,-1,-1,-1,-1,-1],"loss_changes":[3.6345482E11,8.463542E10,1.3243908E10,6.3454085E9,1.062025E10,1.0712842E9,2.2604513E9,1.2221645E9,4.52765E9,1.3212625E9,1.9901399E9,1.7850778E8,1.6109691E9,4.710957E9,0E0,0E0,1.1432428E9,4.2438554E8,7.424778E8,3.2293184E8,5.1082803E8,3.2612383E9,7.9769805E8,0E0,2.4353997E8,5.661389E7,4.917248E7,8.103117E8,6.8499866E8,2.1109965E8,2.3996826E8,1.001472E8,1.038039E8,2.8720346E8,2.4040835E8,5.2908384E7,1.9953314E8,7.689402E7,8.989798E7,5.028347E8,1.9375104E8,1.466796E9,6.5166336E7,0E0,7.564288E7,0E0,0E0,0E0,0E0,1.0915533E8,0E0,3.2307814E8,0E0,0E0,0E0,0E0,0E0,0E0,0E0,0E0,0E0,0E0,0E0,0E0,0E0,0E0,0E0,0E0,0E0,0E0,0E0,0E0,0E0,0E0,0E0,0E0,0E0,0E0,0E0,0E0,0E0,0E0,0E0,0E0,0E0,0E0,0E0],"parents":[2147483647,0,0,1,1,2,2,3,3,4,4,5,5,6,6,7,7,8,8,9,9,10,10,11,11,12,12,13,13,16,16,17,17,18,18,19,19,20,20,21,21,22,22,24,24,25,25,26,26,27,27,28,28,29,29,30,30,31,31,32,32,33,33,34,34,35,35,36,36,37,37,38,38,39,39,40,40,41,41,42,42,44,44,49,49,51,51],"right_children":[2,4,6,8,10,12,14,16,18,20,22,24,26,28,-1,-1,30,32,34,36,38,40,42,-1,44,46,48,50,52,54,56,58,60,62,64,66,68,70,72,74,76,78,80,-1,82,-1,-1,-1,-1,84,-1,86,-1,-1,-1,-1,-1,-1,-1,-1,-1,-1,-1,-1,-1,-1,-1,-1,-1,-1,-1,-1,-1,-1,-1,-1,-1,-1,-1,-1,-1,-1,-1,-1,-1,-1,-1],"split_conditions":[1E0,1.2164671E2,8.977059E2,1.0968E2,2.147278E2,7.2092053E2,8.128E1,5.01E1,5.8871147E1,1.1554E2,3.236828E2,7.726E1,7.766E1,1.1956522E3,1.4018174E3,-2.9004037E2,5.7971016E1,